digraph Tree {
node [shape=box, style="filled, rounded", color="black", fontname=helvetica] ;
edge [fontname=helvetica] ;
0 [label="BTC/USD_returns_lag_1 <= -0.17\nmse = 0.0\nsamples = 2892\nvalue = -0.0", fillcolor="#e5813970"] ;
1 [label="returns_lag_1 <= -0.17\nmse = 0.0\nsamples = 835\nvalue = -0.0", fillcolor="#e581396d"] ;
0 -> 1 [labeldistance=2.5, labelangle=45, headlabel="True"] ;
2 [label="returns_lag_4 <= -1.36\nmse = 0.0\nsamples = 832\nvalue = -0.0", fillcolor="#e581396d"] ;
1 -> 2 ;
3 [label="BTC/USD_returns_lag_4 <= -1.37\nmse = 0.0\nsamples = 59\nvalue = -0.0", fillcolor="#e5813967"] ;
2 -> 3 ;
4 [label="returns_lag_4 <= -1.47\nmse = 0.0\nsamples = 58\nvalue = -0.0", fillcolor="#e581396a"] ;
3 -> 4 ;
5 [label="BTC/USD_returns_lag_2 <= -5.05\nmse = 0.0\nsamples = 55\nvalue = -0.0", fillcolor="#e581396c"] ;
4 -> 5 ;
6 [label="returns_lag_3 <= -2.17\nmse = 0.0\nsamples = 2\nvalue = -0.0", fillcolor="#e5813949"] ;
5 -> 6 ;
7 [label="mse = 0.0\nsamples = 1\nvalue = 0.0", fillcolor="#e5813972"] ;
6 -> 7 ;
8 [label="mse = 0.0\nsamples = 1\nvalue = -0.01", fillcolor="#e581391f"] ;
6 -> 8 ;
9 [label="BTC/USD_returns_lag_2 <= 2.56\nmse = 0.0\nsamples = 53\nvalue = -0.0", fillcolor="#e581396c"] ;
5 -> 9 ;
10 [label="returns_lag_3 <= 0.1\nmse = 0.0\nsamples = 52\nvalue = -0.0", fillcolor="#e581396d"] ;
9 -> 10 ;
11 [label="returns_lag_2 <= -0.65\nmse = 0.0\nsamples = 42\nvalue = -0.0", fillcolor="#e581396c"] ;
10 -> 11 ;
12 [label="BTC/USD_returns_lag_2 <= -1.39\nmse = 0.0\nsamples = 13\nvalue = -0.0", fillcolor="#e5813968"] ;
11 -> 12 ;
13 [label="mse = 0.0\nsamples = 3\nvalue = 0.0", fillcolor="#e5813970"] ;
12 -> 13 ;
14 [label="BTC/USD_returns_lag_1 <= -2.13\nmse = 0.0\nsamples = 10\nvalue = -0.0", fillcolor="#e5813965"] ;
12 -> 14 ;
15 [label="mse = 0.0\nsamples = 1\nvalue = 0.0", fillcolor="#e5813970"] ;
14 -> 15 ;
16 [label="returns_lag_2 <= -1.2\nmse = 0.0\nsamples = 9\nvalue = -0.0", fillcolor="#e5813962"] ;
14 -> 16 ;
17 [label="BTC/USD_returns_lag_2 <= -1.24\nmse = 0.0\nsamples = 3\nvalue = -0.0", fillcolor="#e581395d"] ;
16 -> 17 ;
18 [label="returns_lag_4 <= -1.51\nmse = 0.0\nsamples = 2\nvalue = -0.0", fillcolor="#e5813963"] ;
17 -> 18 ;
19 [label="mse = 0.0\nsamples = 1\nvalue = -0.0", fillcolor="#e581395d"] ;
18 -> 19 ;
20 [label="mse = -0.0\nsamples = 1\nvalue = -0.0", fillcolor="#e581396e"] ;
18 -> 20 ;
21 [label="mse = 0.0\nsamples = 1\nvalue = -0.0", fillcolor="#e581394b"] ;
17 -> 21 ;
22 [label="returns_lag_2 <= -1.07\nmse = 0.0\nsamples = 6\nvalue = -0.0", fillcolor="#e5813965"] ;
16 -> 22 ;
23 [label="mse = 0.0\nsamples = 2\nvalue = 0.0", fillcolor="#e5813971"] ;
22 -> 23 ;
24 [label="mse = 0.0\nsamples = 4\nvalue = -0.0", fillcolor="#e5813962"] ;
22 -> 24 ;
25 [label="returns_lag_1 <= -1.2\nmse = 0.0\nsamples = 29\nvalue = -0.0", fillcolor="#e581396d"] ;
11 -> 25 ;
26 [label="returns_lag_4 <= -2.8\nmse = 0.0\nsamples = 6\nvalue = -0.0", fillcolor="#e5813969"] ;
25 -> 26 ;
27 [label="mse = 0.0\nsamples = 1\nvalue = -0.0", fillcolor="#e581395b"] ;
26 -> 27 ;
28 [label="returns_lag_2 <= 1.36\nmse = 0.0\nsamples = 5\nvalue = -0.0", fillcolor="#e581396c"] ;
26 -> 28 ;
29 [label="mse = 0.0\nsamples = 4\nvalue = -0.0", fillcolor="#e581396a"] ;
28 -> 29 ;
30 [label="mse = 0.0\nsamples = 1\nvalue = 0.0", fillcolor="#e5813972"] ;
28 -> 30 ;
31 [label="returns_lag_4 <= -1.98\nmse = 0.0\nsamples = 23\nvalue = -0.0", fillcolor="#e581396f"] ;
25 -> 31 ;
32 [label="BTC/USD_returns_lag_4 <= -2.15\nmse = 0.0\nsamples = 12\nvalue = -0.0", fillcolor="#e581396d"] ;
31 -> 32 ;
33 [label="mse = 0.0\nsamples = 8\nvalue = 0.0", fillcolor="#e5813970"] ;
32 -> 33 ;
34 [label="returns_lag_4 <= -2.09\nmse = 0.0\nsamples = 4\nvalue = -0.0", fillcolor="#e5813967"] ;
32 -> 34 ;
35 [label="mse = 0.0\nsamples = 1\nvalue = -0.0", fillcolor="#e5813954"] ;
34 -> 35 ;
36 [label="mse = 0.0\nsamples = 3\nvalue = -0.0", fillcolor="#e581396e"] ;
34 -> 36 ;
37 [label="mse = 0.0\nsamples = 11\nvalue = 0.0", fillcolor="#e5813970"] ;
31 -> 37 ;
38 [label="BTC/USD_returns_lag_4 <= -2.8\nmse = 0.0\nsamples = 10\nvalue = 0.0", fillcolor="#e5813972"] ;
10 -> 38 ;
39 [label="mse = 0.0\nsamples = 2\nvalue = -0.0", fillcolor="#e5813968"] ;
38 -> 39 ;
40 [label="BTC/USD_returns_lag_4 <= -1.95\nmse = 0.0\nsamples = 8\nvalue = 0.0", fillcolor="#e5813974"] ;
38 -> 40 ;
41 [label="mse = 0.0\nsamples = 5\nvalue = 0.0", fillcolor="#e5813976"] ;
40 -> 41 ;
42 [label="mse = 0.0\nsamples = 3\nvalue = -0.0", fillcolor="#e581396f"] ;
40 -> 42 ;
43 [label="mse = 0.0\nsamples = 1\nvalue = -0.0", fillcolor="#e581395b"] ;
9 -> 43 ;
44 [label="BTC/USD_returns_lag_3 <= -0.64\nmse = 0.0\nsamples = 3\nvalue = -0.0", fillcolor="#e5813950"] ;
4 -> 44 ;
45 [label="BTC/USD_returns_lag_1 <= -0.6\nmse = 0.0\nsamples = 2\nvalue = -0.0", fillcolor="#e581394b"] ;
44 -> 45 ;
46 [label="mse = 0.0\nsamples = 1\nvalue = -0.0", fillcolor="#e5813952"] ;
45 -> 46 ;
47 [label="mse = -0.0\nsamples = 1\nvalue = -0.0", fillcolor="#e5813944"] ;
45 -> 47 ;
48 [label="mse = 0.0\nsamples = 1\nvalue = 0.0", fillcolor="#e5813970"] ;
44 -> 48 ;
49 [label="mse = 0.0\nsamples = 1\nvalue = -0.01", fillcolor="#e5813900"] ;
3 -> 49 ;
50 [label="returns_lag_3 <= 1.0\nmse = 0.0\nsamples = 773\nvalue = -0.0", fillcolor="#e581396d"] ;
2 -> 50 ;
51 [label="returns_lag_1 <= -4.3\nmse = 0.0\nsamples = 705\nvalue = -0.0", fillcolor="#e581396d"] ;
50 -> 51 ;
52 [label="returns_lag_2 <= -0.59\nmse = 0.0\nsamples = 8\nvalue = -0.0", fillcolor="#e581395c"] ;
51 -> 52 ;
53 [label="returns_lag_1 <= -4.6\nmse = 0.0\nsamples = 3\nvalue = -0.0", fillcolor="#e581394a"] ;
52 -> 53 ;
54 [label="mse = 0.0\nsamples = 2\nvalue = -0.0", fillcolor="#e581394e"] ;
53 -> 54 ;
55 [label="mse = 0.0\nsamples = 1\nvalue = -0.0", fillcolor="#e5813941"] ;
53 -> 55 ;
56 [label="returns_lag_4 <= -0.18\nmse = 0.0\nsamples = 5\nvalue = -0.0", fillcolor="#e581396a"] ;
52 -> 56 ;
57 [label="mse = 0.0\nsamples = 1\nvalue = 0.0", fillcolor="#e5813980"] ;
56 -> 57 ;
58 [label="returns_lag_1 <= -4.8\nmse = 0.0\nsamples = 4\nvalue = -0.0", fillcolor="#e5813967"] ;
56 -> 58 ;
59 [label="BTC/USD_returns_lag_1 <= -5.01\nmse = 0.0\nsamples = 3\nvalue = -0.0", fillcolor="#e5813964"] ;
58 -> 59 ;
60 [label="BTC/USD_returns_lag_1 <= -5.38\nmse = 0.0\nsamples = 2\nvalue = -0.0", fillcolor="#e5813968"] ;
59 -> 60 ;
61 [label="mse = 0.0\nsamples = 1\nvalue = -0.0", fillcolor="#e5813962"] ;
60 -> 61 ;
62 [label="mse = -0.0\nsamples = 1\nvalue = -0.0", fillcolor="#e581396e"] ;
60 -> 62 ;
63 [label="mse = 0.0\nsamples = 1\nvalue = -0.0", fillcolor="#e5813954"] ;
59 -> 63 ;
64 [label="mse = 0.0\nsamples = 1\nvalue = -0.0", fillcolor="#e581396e"] ;
58 -> 64 ;
65 [label="BTC/USD_returns_lag_1 <= -0.37\nmse = 0.0\nsamples = 697\nvalue = -0.0", fillcolor="#e581396d"] ;
51 -> 65 ;
66 [label="returns_lag_1 <= -4.15\nmse = 0.0\nsamples = 378\nvalue = -0.0", fillcolor="#e581396c"] ;
65 -> 66 ;
67 [label="mse = 0.0\nsamples = 1\nvalue = 0.0", fillcolor="#e5813999"] ;
66 -> 67 ;
68 [label="returns_lag_1 <= -1.92\nmse = 0.0\nsamples = 377\nvalue = -0.0", fillcolor="#e581396c"] ;
66 -> 68 ;
69 [label="returns_lag_4 <= 0.27\nmse = 0.0\nsamples = 74\nvalue = -0.0", fillcolor="#e581396f"] ;
68 -> 69 ;
70 [label="returns_lag_2 <= 0.19\nmse = 0.0\nsamples = 62\nvalue = -0.0", fillcolor="#e581396e"] ;
69 -> 70 ;
71 [label="returns_lag_1 <= -3.2\nmse = 0.0\nsamples = 56\nvalue = -0.0", fillcolor="#e581396f"] ;
70 -> 71 ;
72 [label="returns_lag_2 <= -0.36\nmse = 0.0\nsamples = 10\nvalue = 0.0", fillcolor="#e5813974"] ;
71 -> 72 ;
73 [label="returns_lag_2 <= -0.45\nmse = 0.0\nsamples = 4\nvalue = 0.0", fillcolor="#e581397f"] ;
72 -> 73 ;
74 [label="mse = 0.0\nsamples = 3\nvalue = 0.0", fillcolor="#e581397c"] ;
73 -> 74 ;
75 [label="mse = 0.0\nsamples = 1\nvalue = 0.0", fillcolor="#e5813987"] ;
73 -> 75 ;
76 [label="returns_lag_4 <= -0.64\nmse = 0.0\nsamples = 6\nvalue = -0.0", fillcolor="#e581396f"] ;
72 -> 76 ;
77 [label="mse = 0.0\nsamples = 1\nvalue = -0.0", fillcolor="#e5813962"] ;
76 -> 77 ;
78 [label="BTC/USD_returns_lag_2 <= 0.1\nmse = 0.0\nsamples = 5\nvalue = 0.0", fillcolor="#e5813972"] ;
76 -> 78 ;
79 [label="mse = 0.0\nsamples = 4\nvalue = 0.0", fillcolor="#e5813971"] ;
78 -> 79 ;
80 [label="mse = 0.0\nsamples = 1\nvalue = 0.0", fillcolor="#e581397b"] ;
78 -> 80 ;
81 [label="returns_lag_1 <= -2.37\nmse = 0.0\nsamples = 46\nvalue = -0.0", fillcolor="#e581396e"] ;
71 -> 81 ;
82 [label="BTC/USD_returns_lag_1 <= -2.39\nmse = 0.0\nsamples = 21\nvalue = -0.0", fillcolor="#e581396b"] ;
81 -> 82 ;
83 [label="BTC/USD_returns_lag_1 <= -3.13\nmse = 0.0\nsamples = 20\nvalue = -0.0", fillcolor="#e581396c"] ;
82 -> 83 ;
84 [label="mse = 0.0\nsamples = 1\nvalue = -0.0", fillcolor="#e581395b"] ;
83 -> 84 ;
85 [label="BTC/USD_returns_lag_4 <= -0.27\nmse = 0.0\nsamples = 19\nvalue = -0.0", fillcolor="#e581396d"] ;
83 -> 85 ;
86 [label="BTC/USD_returns_lag_4 <= -1.03\nmse = 0.0\nsamples = 5\nvalue = -0.0", fillcolor="#e5813967"] ;
85 -> 86 ;
87 [label="mse = 0.0\nsamples = 2\nvalue = -0.0", fillcolor="#e581396e"] ;
86 -> 87 ;
88 [label="BTC/USD_returns_lag_3 <= -1.46\nmse = 0.0\nsamples = 3\nvalue = -0.0", fillcolor="#e5813963"] ;
86 -> 88 ;
89 [label="mse = 0.0\nsamples = 1\nvalue = -0.0", fillcolor="#e581396e"] ;
88 -> 89 ;
90 [label="mse = 0.0\nsamples = 2\nvalue = -0.0", fillcolor="#e5813960"] ;
88 -> 90 ;
91 [label="returns_lag_2 <= -0.17\nmse = 0.0\nsamples = 14\nvalue = -0.0", fillcolor="#e581396e"] ;
85 -> 91 ;
92 [label="returns_lag_2 <= -0.27\nmse = 0.0\nsamples = 6\nvalue = -0.0", fillcolor="#e581396c"] ;
91 -> 92 ;
93 [label="BTC/USD_returns_lag_3 <= -1.57\nmse = 0.0\nsamples = 5\nvalue = -0.0", fillcolor="#e581396e"] ;
92 -> 93 ;
94 [label="mse = 0.0\nsamples = 1\nvalue = -0.0", fillcolor="#e5813964"] ;
93 -> 94 ;
95 [label="mse = 0.0\nsamples = 4\nvalue = -0.0", fillcolor="#e581396f"] ;
93 -> 95 ;
96 [label="mse = 0.0\nsamples = 1\nvalue = -0.0", fillcolor="#e5813959"] ;
92 -> 96 ;
97 [label="mse = 0.0\nsamples = 8\nvalue = 0.0", fillcolor="#e5813971"] ;
91 -> 97 ;
98 [label="mse = -0.0\nsamples = 1\nvalue = -0.0", fillcolor="#e581395d"] ;
82 -> 98 ;
99 [label="BTC/USD_returns_lag_4 <= -1.08\nmse = 0.0\nsamples = 25\nvalue = -0.0", fillcolor="#e5813970"] ;
81 -> 99 ;
100 [label="mse = 0.0\nsamples = 1\nvalue = 0.0", fillcolor="#e581397c"] ;
99 -> 100 ;
101 [label="returns_lag_3 <= -0.71\nmse = 0.0\nsamples = 24\nvalue = -0.0", fillcolor="#e581396f"] ;
99 -> 101 ;
102 [label="BTC/USD_returns_lag_2 <= -0.08\nmse = 0.0\nsamples = 6\nvalue = -0.0", fillcolor="#e581396a"] ;
101 -> 102 ;
103 [label="returns_lag_3 <= -0.82\nmse = 0.0\nsamples = 5\nvalue = -0.0", fillcolor="#e581396e"] ;
102 -> 103 ;
104 [label="mse = 0.0\nsamples = 4\nvalue = -0.0", fillcolor="#e581396f"] ;
103 -> 104 ;
105 [label="mse = 0.0\nsamples = 1\nvalue = -0.0", fillcolor="#e5813966"] ;
103 -> 105 ;
106 [label="mse = 0.0\nsamples = 1\nvalue = -0.0", fillcolor="#e5813956"] ;
102 -> 106 ;
107 [label="mse = 0.0\nsamples = 18\nvalue = 0.0", fillcolor="#e5813970"] ;
101 -> 107 ;
108 [label="returns_lag_1 <= -3.06\nmse = 0.0\nsamples = 6\nvalue = -0.0", fillcolor="#e5813962"] ;
70 -> 108 ;
109 [label="returns_lag_3 <= -0.46\nmse = 0.0\nsamples = 2\nvalue = -0.0", fillcolor="#e581394e"] ;
108 -> 109 ;
110 [label="mse = 0.0\nsamples = 1\nvalue = -0.0", fillcolor="#e5813949"] ;
109 -> 110 ;
111 [label="mse = -0.0\nsamples = 1\nvalue = -0.0", fillcolor="#e5813952"] ;
109 -> 111 ;
112 [label="BTC/USD_returns_lag_1 <= -2.59\nmse = 0.0\nsamples = 4\nvalue = -0.0", fillcolor="#e581396c"] ;
108 -> 112 ;
113 [label="mse = 0.0\nsamples = 1\nvalue = -0.0", fillcolor="#e581395f"] ;
112 -> 113 ;
114 [label="mse = 0.0\nsamples = 3\nvalue = 0.0", fillcolor="#e5813970"] ;
112 -> 114 ;
115 [label="returns_lag_4 <= 0.53\nmse = 0.0\nsamples = 12\nvalue = 0.0", fillcolor="#e5813973"] ;
69 -> 115 ;
116 [label="mse = 0.0\nsamples = 2\nvalue = 0.0", fillcolor="#e5813980"] ;
115 -> 116 ;
117 [label="BTC/USD_returns_lag_3 <= 0.1\nmse = 0.0\nsamples = 10\nvalue = -0.0", fillcolor="#e581396f"] ;
115 -> 117 ;
118 [label="BTC/USD_returns_lag_3 <= -0.07\nmse = 0.0\nsamples = 6\nvalue = -0.0", fillcolor="#e581396c"] ;
117 -> 118 ;
119 [label="mse = 0.0\nsamples = 5\nvalue = -0.0", fillcolor="#e581396e"] ;
118 -> 119 ;
120 [label="mse = 0.0\nsamples = 1\nvalue = -0.0", fillcolor="#e5813965"] ;
118 -> 120 ;
121 [label="BTC/USD_returns_lag_1 <= -2.87\nmse = 0.0\nsamples = 4\nvalue = 0.0", fillcolor="#e5813975"] ;
117 -> 121 ;
122 [label="mse = 0.0\nsamples = 2\nvalue = 0.0", fillcolor="#e5813972"] ;
121 -> 122 ;
123 [label="mse = 0.0\nsamples = 2\nvalue = 0.0", fillcolor="#e581397a"] ;
121 -> 123 ;
124 [label="BTC/USD_returns_lag_2 <= -0.86\nmse = 0.0\nsamples = 303\nvalue = -0.0", fillcolor="#e581396b"] ;
68 -> 124 ;
125 [label="BTC/USD_returns_lag_2 <= -0.88\nmse = 0.0\nsamples = 59\nvalue = -0.0", fillcolor="#e5813967"] ;
124 -> 125 ;
126 [label="BTC/USD_returns_lag_1 <= -0.76\nmse = 0.0\nsamples = 58\nvalue = -0.0", fillcolor="#e5813969"] ;
125 -> 126 ;
127 [label="returns_lag_3 <= -1.85\nmse = 0.0\nsamples = 38\nvalue = -0.0", fillcolor="#e5813967"] ;
126 -> 127 ;
128 [label="mse = 0.0\nsamples = 1\nvalue = -0.0", fillcolor="#e5813951"] ;
127 -> 128 ;
129 [label="returns_lag_2 <= -2.42\nmse = 0.0\nsamples = 37\nvalue = -0.0", fillcolor="#e5813968"] ;
127 -> 129 ;
130 [label="BTC/USD_returns_lag_2 <= -4.78\nmse = 0.0\nsamples = 7\nvalue = -0.0", fillcolor="#e581396f"] ;
129 -> 130 ;
131 [label="mse = 0.0\nsamples = 1\nvalue = 0.0", fillcolor="#e5813978"] ;
130 -> 131 ;
132 [label="mse = 0.0\nsamples = 6\nvalue = -0.0", fillcolor="#e581396e"] ;
130 -> 132 ;
133 [label="returns_lag_2 <= -1.82\nmse = 0.0\nsamples = 30\nvalue = -0.0", fillcolor="#e5813966"] ;
129 -> 133 ;
134 [label="BTC/USD_returns_lag_1 <= -1.51\nmse = 0.0\nsamples = 3\nvalue = -0.0", fillcolor="#e5813953"] ;
133 -> 134 ;
135 [label="mse = 0.0\nsamples = 1\nvalue = -0.0", fillcolor="#e5813947"] ;
134 -> 135 ;
136 [label="returns_lag_4 <= 2.74\nmse = 0.0\nsamples = 2\nvalue = -0.0", fillcolor="#e5813957"] ;
134 -> 136 ;
137 [label="mse = 0.0\nsamples = 1\nvalue = -0.0", fillcolor="#e5813954"] ;
136 -> 137 ;
138 [label="mse = -0.0\nsamples = 1\nvalue = -0.0", fillcolor="#e581395f"] ;
136 -> 138 ;
139 [label="BTC/USD_returns_lag_2 <= -1.07\nmse = 0.0\nsamples = 27\nvalue = -0.0", fillcolor="#e5813968"] ;
133 -> 139 ;
140 [label="BTC/USD_returns_lag_3 <= -0.52\nmse = 0.0\nsamples = 19\nvalue = -0.0", fillcolor="#e5813965"] ;
139 -> 140 ;
141 [label="returns_lag_3 <= -1.79\nmse = 0.0\nsamples = 8\nvalue = -0.0", fillcolor="#e581396b"] ;
140 -> 141 ;
142 [label="mse = 0.0\nsamples = 1\nvalue = -0.0", fillcolor="#e5813960"] ;
141 -> 142 ;
143 [label="returns_lag_4 <= 1.2\nmse = 0.0\nsamples = 7\nvalue = 0.0", fillcolor="#e5813970"] ;
141 -> 143 ;
144 [label="returns_lag_2 <= -1.21\nmse = 0.0\nsamples = 6\nvalue = 0.0", fillcolor="#e5813972"] ;
143 -> 144 ;
145 [label="mse = 0.0\nsamples = 5\nvalue = 0.0", fillcolor="#e5813970"] ;
144 -> 145 ;
146 [label="mse = -0.0\nsamples = 1\nvalue = 0.0", fillcolor="#e581397e"] ;
144 -> 146 ;
147 [label="mse = 0.0\nsamples = 1\nvalue = -0.0", fillcolor="#e5813961"] ;
143 -> 147 ;
148 [label="returns_lag_4 <= -0.18\nmse = 0.0\nsamples = 11\nvalue = -0.0", fillcolor="#e5813962"] ;
140 -> 148 ;
149 [label="BTC/USD_returns_lag_3 <= -0.07\nmse = 0.0\nsamples = 3\nvalue = -0.0", fillcolor="#e5813968"] ;
148 -> 149 ;
150 [label="mse = 0.0\nsamples = 1\nvalue = -0.0", fillcolor="#e5813963"] ;
149 -> 150 ;
151 [label="mse = 0.0\nsamples = 2\nvalue = -0.0", fillcolor="#e581396c"] ;
149 -> 151 ;
152 [label="BTC/USD_returns_lag_4 <= -0.17\nmse = 0.0\nsamples = 8\nvalue = -0.0", fillcolor="#e581395e"] ;
148 -> 152 ;
153 [label="mse = 0.0\nsamples = 2\nvalue = -0.0", fillcolor="#e5813950"] ;
152 -> 153 ;
154 [label="returns_lag_2 <= -1.24\nmse = 0.0\nsamples = 6\nvalue = -0.0", fillcolor="#e5813961"] ;
152 -> 154 ;
155 [label="BTC/USD_returns_lag_4 <= 0.09\nmse = 0.0\nsamples = 5\nvalue = -0.0", fillcolor="#e5813960"] ;
154 -> 155 ;
156 [label="mse = 0.0\nsamples = 2\nvalue = -0.0", fillcolor="#e5813963"] ;
155 -> 156 ;
157 [label="mse = 0.0\nsamples = 3\nvalue = -0.0", fillcolor="#e581395c"] ;
155 -> 157 ;
158 [label="mse = 0.0\nsamples = 1\nvalue = 0.0", fillcolor="#e5813970"] ;
154 -> 158 ;
159 [label="BTC/USD_returns_lag_4 <= 0.09\nmse = 0.0\nsamples = 8\nvalue = -0.0", fillcolor="#e581396d"] ;
139 -> 159 ;
160 [label="BTC/USD_returns_lag_3 <= -0.08\nmse = 0.0\nsamples = 4\nvalue = -0.0", fillcolor="#e5813969"] ;
159 -> 160 ;
161 [label="mse = 0.0\nsamples = 2\nvalue = -0.0", fillcolor="#e5813964"] ;
160 -> 161 ;
162 [label="mse = 0.0\nsamples = 2\nvalue = -0.0", fillcolor="#e581396c"] ;
160 -> 162 ;
163 [label="BTC/USD_returns_lag_3 <= -1.38\nmse = 0.0\nsamples = 4\nvalue = 0.0", fillcolor="#e5813970"] ;
159 -> 163 ;
164 [label="mse = 0.0\nsamples = 1\nvalue = -0.0", fillcolor="#e581396a"] ;
163 -> 164 ;
165 [label="mse = 0.0\nsamples = 3\nvalue = 0.0", fillcolor="#e5813973"] ;
163 -> 165 ;
166 [label="BTC/USD_returns_lag_2 <= -2.46\nmse = 0.0\nsamples = 20\nvalue = -0.0", fillcolor="#e581396d"] ;
126 -> 166 ;
167 [label="mse = 0.0\nsamples = 1\nvalue = -0.0", fillcolor="#e581395b"] ;
166 -> 167 ;
168 [label="returns_lag_4 <= -1.03\nmse = 0.0\nsamples = 19\nvalue = -0.0", fillcolor="#e581396f"] ;
166 -> 168 ;
169 [label="mse = 0.0\nsamples = 1\nvalue = -0.0", fillcolor="#e5813964"] ;
168 -> 169 ;
170 [label="BTC/USD_returns_lag_2 <= -1.98\nmse = 0.0\nsamples = 18\nvalue = 0.0", fillcolor="#e5813970"] ;
168 -> 170 ;
171 [label="returns_lag_2 <= -2.17\nmse = 0.0\nsamples = 3\nvalue = 0.0", fillcolor="#e5813976"] ;
170 -> 171 ;
172 [label="mse = 0.0\nsamples = 2\nvalue = -0.0", fillcolor="#e581396f"] ;
171 -> 172 ;
173 [label="mse = 0.0\nsamples = 1\nvalue = 0.0", fillcolor="#e5813984"] ;
171 -> 173 ;
174 [label="mse = 0.0\nsamples = 15\nvalue = -0.0", fillcolor="#e581396f"] ;
170 -> 174 ;
175 [label="mse = -0.0\nsamples = 1\nvalue = -0.0", fillcolor="#e581393b"] ;
125 -> 175 ;
176 [label="returns_lag_4 <= 1.62\nmse = 0.0\nsamples = 244\nvalue = -0.0", fillcolor="#e581396c"] ;
124 -> 176 ;
177 [label="returns_lag_1 <= -0.37\nmse = 0.0\nsamples = 241\nvalue = -0.0", fillcolor="#e581396c"] ;
176 -> 177 ;
178 [label="returns_lag_4 <= 0.38\nmse = 0.0\nsamples = 237\nvalue = -0.0", fillcolor="#e581396c"] ;
177 -> 178 ;
179 [label="BTC/USD_returns_lag_1 <= -1.9\nmse = 0.0\nsamples = 220\nvalue = -0.0", fillcolor="#e581396c"] ;
178 -> 179 ;
180 [label="mse = -0.0\nsamples = 1\nvalue = -0.0", fillcolor="#e581395d"] ;
179 -> 180 ;
181 [label="returns_lag_3 <= 0.54\nmse = 0.0\nsamples = 219\nvalue = -0.0", fillcolor="#e581396c"] ;
179 -> 181 ;
182 [label="returns_lag_2 <= 0.19\nmse = 0.0\nsamples = 210\nvalue = -0.0", fillcolor="#e581396c"] ;
181 -> 182 ;
183 [label="returns_lag_1 <= -1.66\nmse = 0.0\nsamples = 161\nvalue = -0.0", fillcolor="#e581396d"] ;
182 -> 183 ;
184 [label="BTC/USD_returns_lag_1 <= -1.83\nmse = 0.0\nsamples = 13\nvalue = -0.0", fillcolor="#e5813968"] ;
183 -> 184 ;
185 [label="BTC/USD_returns_lag_4 <= -0.89\nmse = 0.0\nsamples = 5\nvalue = 0.0", fillcolor="#e5813970"] ;
184 -> 185 ;
186 [label="mse = 0.0\nsamples = 1\nvalue = -0.0", fillcolor="#e5813961"] ;
185 -> 186 ;
187 [label="mse = 0.0\nsamples = 4\nvalue = 0.0", fillcolor="#e5813974"] ;
185 -> 187 ;
188 [label="returns_lag_1 <= -1.81\nmse = 0.0\nsamples = 8\nvalue = -0.0", fillcolor="#e5813965"] ;
184 -> 188 ;
189 [label="mse = 0.0\nsamples = 1\nvalue = -0.0", fillcolor="#e581395a"] ;
188 -> 189 ;
190 [label="BTC/USD_returns_lag_1 <= -1.68\nmse = 0.0\nsamples = 7\nvalue = -0.0", fillcolor="#e5813968"] ;
188 -> 190 ;
191 [label="BTC/USD_returns_lag_4 <= 0.09\nmse = 0.0\nsamples = 6\nvalue = -0.0", fillcolor="#e581396b"] ;
190 -> 191 ;
192 [label="BTC/USD_returns_lag_1 <= -1.74\nmse = 0.0\nsamples = 5\nvalue = -0.0", fillcolor="#e581396c"] ;
191 -> 192 ;
193 [label="mse = 0.0\nsamples = 2\nvalue = 0.0", fillcolor="#e5813970"] ;
192 -> 193 ;
194 [label="BTC/USD_returns_lag_1 <= -1.71\nmse = 0.0\nsamples = 3\nvalue = -0.0", fillcolor="#e5813969"] ;
192 -> 194 ;
195 [label="mse = 0.0\nsamples = 2\nvalue = -0.0", fillcolor="#e5813967"] ;
194 -> 195 ;
196 [label="mse = 0.0\nsamples = 1\nvalue = 0.0", fillcolor="#e5813970"] ;
194 -> 196 ;
197 [label="mse = 0.0\nsamples = 1\nvalue = -0.0", fillcolor="#e5813960"] ;
191 -> 197 ;
198 [label="mse = -0.0\nsamples = 1\nvalue = -0.0", fillcolor="#e5813963"] ;
190 -> 198 ;
199 [label="BTC/USD_returns_lag_1 <= -1.49\nmse = 0.0\nsamples = 148\nvalue = -0.0", fillcolor="#e581396d"] ;
183 -> 199 ;
200 [label="returns_lag_3 <= -1.39\nmse = 0.0\nsamples = 16\nvalue = 0.0", fillcolor="#e5813971"] ;
199 -> 200 ;
201 [label="mse = 0.0\nsamples = 2\nvalue = 0.0", fillcolor="#e581397a"] ;
200 -> 201 ;
202 [label="mse = 0.0\nsamples = 14\nvalue = 0.0", fillcolor="#e5813970"] ;
200 -> 202 ;
203 [label="BTC/USD_returns_lag_1 <= -1.23\nmse = 0.0\nsamples = 132\nvalue = -0.0", fillcolor="#e581396d"] ;
199 -> 203 ;
204 [label="BTC/USD_returns_lag_1 <= -1.29\nmse = 0.0\nsamples = 20\nvalue = -0.0", fillcolor="#e581396a"] ;
203 -> 204 ;
205 [label="BTC/USD_returns_lag_1 <= -1.31\nmse = 0.0\nsamples = 15\nvalue = -0.0", fillcolor="#e581396c"] ;
204 -> 205 ;
206 [label="mse = 0.0\nsamples = 13\nvalue = -0.0", fillcolor="#e581396a"] ;
205 -> 206 ;
207 [label="mse = 0.0\nsamples = 2\nvalue = 0.0", fillcolor="#e5813974"] ;
205 -> 207 ;
208 [label="returns_lag_2 <= -0.17\nmse = 0.0\nsamples = 5\nvalue = -0.0", fillcolor="#e5813962"] ;
204 -> 208 ;
209 [label="mse = 0.0\nsamples = 2\nvalue = -0.0", fillcolor="#e581395d"] ;
208 -> 209 ;
210 [label="returns_lag_4 <= 0.09\nmse = 0.0\nsamples = 3\nvalue = -0.0", fillcolor="#e5813965"] ;
208 -> 210 ;
211 [label="mse = 0.0\nsamples = 2\nvalue = -0.0", fillcolor="#e581396a"] ;
210 -> 211 ;
212 [label="mse = 0.0\nsamples = 1\nvalue = -0.0", fillcolor="#e581395c"] ;
210 -> 212 ;
213 [label="BTC/USD_returns_lag_3 <= -0.18\nmse = 0.0\nsamples = 112\nvalue = -0.0", fillcolor="#e581396d"] ;
203 -> 213 ;
214 [label="BTC/USD_returns_lag_3 <= -0.18\nmse = 0.0\nsamples = 32\nvalue = -0.0", fillcolor="#e581396c"] ;
213 -> 214 ;
215 [label="returns_lag_2 <= 0.09\nmse = 0.0\nsamples = 28\nvalue = -0.0", fillcolor="#e581396e"] ;
214 -> 215 ;
216 [label="returns_lag_3 <= -0.92\nmse = 0.0\nsamples = 25\nvalue = -0.0", fillcolor="#e581396e"] ;
215 -> 216 ;
217 [label="returns_lag_1 <= -0.54\nmse = 0.0\nsamples = 11\nvalue = 0.0", fillcolor="#e5813970"] ;
216 -> 217 ;
218 [label="mse = 0.0\nsamples = 8\nvalue = -0.0", fillcolor="#e581396f"] ;
217 -> 218 ;
219 [label="BTC/USD_returns_lag_1 <= -0.46\nmse = 0.0\nsamples = 3\nvalue = 0.0", fillcolor="#e5813975"] ;
217 -> 219 ;
220 [label="mse = 0.0\nsamples = 1\nvalue = 0.0", fillcolor="#e5813985"] ;
219 -> 220 ;
221 [label="mse = 0.0\nsamples = 2\nvalue = 0.0", fillcolor="#e5813970"] ;
219 -> 221 ;
222 [label="returns_lag_3 <= -0.18\nmse = 0.0\nsamples = 14\nvalue = -0.0", fillcolor="#e581396d"] ;
216 -> 222 ;
223 [label="mse = 0.0\nsamples = 13\nvalue = -0.0", fillcolor="#e581396c"] ;
222 -> 223 ;
224 [label="mse = -0.0\nsamples = 1\nvalue = 0.0", fillcolor="#e5813976"] ;
222 -> 224 ;
225 [label="BTC/USD_returns_lag_1 <= -0.7\nmse = 0.0\nsamples = 3\nvalue = -0.0", fillcolor="#e5813967"] ;
215 -> 225 ;
226 [label="mse = 0.0\nsamples = 2\nvalue = -0.0", fillcolor="#e5813969"] ;
225 -> 226 ;
227 [label="mse = 0.0\nsamples = 1\nvalue = -0.0", fillcolor="#e581395f"] ;
225 -> 227 ;
228 [label="returns_lag_1 <= -1.04\nmse = 0.0\nsamples = 4\nvalue = -0.0", fillcolor="#e581395e"] ;
214 -> 228 ;
229 [label="mse = 0.0\nsamples = 1\nvalue = -0.0", fillcolor="#e581393d"] ;
228 -> 229 ;
230 [label="BTC/USD_returns_lag_4 <= -0.09\nmse = 0.0\nsamples = 3\nvalue = -0.0", fillcolor="#e5813966"] ;
228 -> 230 ;
231 [label="mse = 0.0\nsamples = 1\nvalue = -0.0", fillcolor="#e581395b"] ;
230 -> 231 ;
232 [label="mse = 0.0\nsamples = 2\nvalue = -0.0", fillcolor="#e5813969"] ;
230 -> 232 ;
233 [label="BTC/USD_returns_lag_1 <= -0.71\nmse = 0.0\nsamples = 80\nvalue = -0.0", fillcolor="#e581396e"] ;
213 -> 233 ;
234 [label="returns_lag_4 <= 0.09\nmse = 0.0\nsamples = 52\nvalue = -0.0", fillcolor="#e581396f"] ;
233 -> 234 ;
235 [label="returns_lag_1 <= -1.2\nmse = 0.0\nsamples = 42\nvalue = -0.0", fillcolor="#e5813970"] ;
234 -> 235 ;
236 [label="returns_lag_4 <= -0.35\nmse = 0.0\nsamples = 3\nvalue = 0.0", fillcolor="#e5813973"] ;
235 -> 236 ;
237 [label="mse = 0.0\nsamples = 1\nvalue = 0.0", fillcolor="#e581397d"] ;
236 -> 237 ;
238 [label="mse = 0.0\nsamples = 2\nvalue = 0.0", fillcolor="#e5813971"] ;
236 -> 238 ;
239 [label="mse = 0.0\nsamples = 39\nvalue = -0.0", fillcolor="#e581396f"] ;
235 -> 239 ;
240 [label="returns_lag_2 <= -0.26\nmse = 0.0\nsamples = 10\nvalue = -0.0", fillcolor="#e581396d"] ;
234 -> 240 ;
241 [label="mse = 0.0\nsamples = 1\nvalue = 0.0", fillcolor="#e581397c"] ;
240 -> 241 ;
242 [label="BTC/USD_returns_lag_2 <= -0.17\nmse = 0.0\nsamples = 9\nvalue = -0.0", fillcolor="#e581396c"] ;
240 -> 242 ;
243 [label="mse = 0.0\nsamples = 1\nvalue = -0.0", fillcolor="#e5813961"] ;
242 -> 243 ;
244 [label="mse = 0.0\nsamples = 8\nvalue = -0.0", fillcolor="#e581396d"] ;
242 -> 244 ;
245 [label="returns_lag_1 <= -0.7\nmse = 0.0\nsamples = 28\nvalue = -0.0", fillcolor="#e581396c"] ;
233 -> 245 ;
246 [label="mse = 0.0\nsamples = 1\nvalue = -0.0", fillcolor="#e581395c"] ;
245 -> 246 ;
247 [label="BTC/USD_returns_lag_4 <= -0.08\nmse = 0.0\nsamples = 27\nvalue = -0.0", fillcolor="#e581396d"] ;
245 -> 247 ;
248 [label="mse = 0.0\nsamples = 12\nvalue = -0.0", fillcolor="#e581396e"] ;
247 -> 248 ;
249 [label="BTC/USD_returns_lag_3 <= 0.1\nmse = 0.0\nsamples = 15\nvalue = -0.0", fillcolor="#e581396b"] ;
247 -> 249 ;
250 [label="returns_lag_2 <= -0.34\nmse = 0.0\nsamples = 10\nvalue = -0.0", fillcolor="#e5813969"] ;
249 -> 250 ;
251 [label="mse = 0.0\nsamples = 2\nvalue = -0.0", fillcolor="#e581396f"] ;
250 -> 251 ;
252 [label="BTC/USD_returns_lag_1 <= -0.55\nmse = 0.0\nsamples = 8\nvalue = -0.0", fillcolor="#e5813966"] ;
250 -> 252 ;
253 [label="BTC/USD_returns_lag_1 <= -0.57\nmse = 0.0\nsamples = 3\nvalue = -0.0", fillcolor="#e5813962"] ;
252 -> 253 ;
254 [label="BTC/USD_returns_lag_2 <= -0.08\nmse = 0.0\nsamples = 2\nvalue = -0.0", fillcolor="#e581396a"] ;
253 -> 254 ;
255 [label="mse = 0.0\nsamples = 1\nvalue = -0.0", fillcolor="#e5813967"] ;
254 -> 255 ;
256 [label="mse = 0.0\nsamples = 1\nvalue = 0.0", fillcolor="#e5813970"] ;
254 -> 256 ;
257 [label="mse = 0.0\nsamples = 1\nvalue = -0.0", fillcolor="#e5813949"] ;
253 -> 257 ;
258 [label="returns_lag_2 <= 0.1\nmse = 0.0\nsamples = 5\nvalue = -0.0", fillcolor="#e5813969"] ;
252 -> 258 ;
259 [label="returns_lag_1 <= -0.45\nmse = 0.0\nsamples = 4\nvalue = -0.0", fillcolor="#e5813968"] ;
258 -> 259 ;
260 [label="returns_lag_1 <= -0.51\nmse = 0.0\nsamples = 3\nvalue = -0.0", fillcolor="#e5813969"] ;
259 -> 260 ;
261 [label="mse = 0.0\nsamples = 2\nvalue = -0.0", fillcolor="#e5813966"] ;
260 -> 261 ;
262 [label="mse = 0.0\nsamples = 1\nvalue = 0.0", fillcolor="#e5813970"] ;
260 -> 262 ;
263 [label="mse = 0.0\nsamples = 1\nvalue = -0.0", fillcolor="#e5813965"] ;
259 -> 263 ;
264 [label="mse = 0.0\nsamples = 1\nvalue = 0.0", fillcolor="#e5813970"] ;
258 -> 264 ;
265 [label="mse = 0.0\nsamples = 5\nvalue = 0.0", fillcolor="#e5813971"] ;
249 -> 265 ;
266 [label="returns_lag_2 <= 0.19\nmse = 0.0\nsamples = 49\nvalue = -0.0", fillcolor="#e5813969"] ;
182 -> 266 ;
267 [label="mse = 0.0\nsamples = 1\nvalue = -0.01", fillcolor="#e581392f"] ;
266 -> 267 ;
268 [label="BTC/USD_returns_lag_3 <= 0.2\nmse = 0.0\nsamples = 48\nvalue = -0.0", fillcolor="#e581396a"] ;
266 -> 268 ;
269 [label="returns_lag_1 <= -1.07\nmse = 0.0\nsamples = 47\nvalue = -0.0", fillcolor="#e581396b"] ;
268 -> 269 ;
270 [label="returns_lag_1 <= -1.14\nmse = 0.0\nsamples = 19\nvalue = -0.0", fillcolor="#e5813968"] ;
269 -> 270 ;
271 [label="BTC/USD_returns_lag_3 <= 0.1\nmse = 0.0\nsamples = 14\nvalue = -0.0", fillcolor="#e581396b"] ;
270 -> 271 ;
272 [label="returns_lag_1 <= -1.35\nmse = 0.0\nsamples = 13\nvalue = -0.0", fillcolor="#e581396c"] ;
271 -> 272 ;
273 [label="BTC/USD_returns_lag_3 <= -0.18\nmse = 0.0\nsamples = 7\nvalue = -0.0", fillcolor="#e581396f"] ;
272 -> 273 ;
274 [label="mse = 0.0\nsamples = 4\nvalue = 0.0", fillcolor="#e5813970"] ;
273 -> 274 ;
275 [label="BTC/USD_returns_lag_1 <= -1.68\nmse = 0.0\nsamples = 3\nvalue = -0.0", fillcolor="#e581396b"] ;
273 -> 275 ;
276 [label="mse = 0.0\nsamples = 1\nvalue = 0.0", fillcolor="#e5813972"] ;
275 -> 276 ;
277 [label="mse = 0.0\nsamples = 2\nvalue = -0.0", fillcolor="#e5813968"] ;
275 -> 277 ;
278 [label="BTC/USD_returns_lag_1 <= -1.31\nmse = 0.0\nsamples = 6\nvalue = -0.0", fillcolor="#e5813969"] ;
272 -> 278 ;
279 [label="mse = 0.0\nsamples = 2\nvalue = -0.0", fillcolor="#e5813961"] ;
278 -> 279 ;
280 [label="returns_lag_1 <= -1.28\nmse = 0.0\nsamples = 4\nvalue = -0.0", fillcolor="#e581396d"] ;
278 -> 280 ;
281 [label="mse = 0.0\nsamples = 1\nvalue = 0.0", fillcolor="#e5813976"] ;
280 -> 281 ;
282 [label="BTC/USD_returns_lag_2 <= 1.09\nmse = 0.0\nsamples = 3\nvalue = -0.0", fillcolor="#e581396a"] ;
280 -> 282 ;
283 [label="mse = 0.0\nsamples = 2\nvalue = -0.0", fillcolor="#e581396d"] ;
282 -> 283 ;
284 [label="mse = 0.0\nsamples = 1\nvalue = -0.0", fillcolor="#e5813964"] ;
282 -> 284 ;
285 [label="mse = -0.0\nsamples = 1\nvalue = -0.0", fillcolor="#e581395b"] ;
271 -> 285 ;
286 [label="returns_lag_2 <= 1.02\nmse = 0.0\nsamples = 5\nvalue = -0.0", fillcolor="#e5813962"] ;
270 -> 286 ;
287 [label="BTC/USD_returns_lag_1 <= -1.08\nmse = 0.0\nsamples = 4\nvalue = -0.0", fillcolor="#e5813965"] ;
286 -> 287 ;
288 [label="BTC/USD_returns_lag_1 <= -1.1\nmse = 0.0\nsamples = 3\nvalue = -0.0", fillcolor="#e5813968"] ;
287 -> 288 ;
289 [label="mse = 0.0\nsamples = 2\nvalue = -0.0", fillcolor="#e5813965"] ;
288 -> 289 ;
290 [label="mse = -0.0\nsamples = 1\nvalue = -0.0", fillcolor="#e581396e"] ;
288 -> 290 ;
291 [label="mse = -0.0\nsamples = 1\nvalue = -0.0", fillcolor="#e5813952"] ;
287 -> 291 ;
292 [label="mse = 0.0\nsamples = 1\nvalue = -0.0", fillcolor="#e5813957"] ;
286 -> 292 ;
293 [label="BTC/USD_returns_lag_2 <= 0.2\nmse = 0.0\nsamples = 28\nvalue = -0.0", fillcolor="#e581396c"] ;
269 -> 293 ;
294 [label="mse = 0.0\nsamples = 1\nvalue = -0.0", fillcolor="#e5813958"] ;
293 -> 294 ;
295 [label="BTC/USD_returns_lag_2 <= 0.2\nmse = 0.0\nsamples = 27\nvalue = -0.0", fillcolor="#e581396e"] ;
293 -> 295 ;
296 [label="BTC/USD_returns_lag_1 <= -0.75\nmse = 0.0\nsamples = 2\nvalue = 0.0", fillcolor="#e5813974"] ;
295 -> 296 ;
297 [label="mse = 0.0\nsamples = 1\nvalue = 0.0", fillcolor="#e581397c"] ;
296 -> 297 ;
298 [label="mse = 0.0\nsamples = 1\nvalue = 0.0", fillcolor="#e5813970"] ;
296 -> 298 ;
299 [label="BTC/USD_returns_lag_1 <= -0.76\nmse = 0.0\nsamples = 25\nvalue = -0.0", fillcolor="#e581396d"] ;
295 -> 299 ;
300 [label="mse = 0.0\nsamples = 9\nvalue = 0.0", fillcolor="#e5813970"] ;
299 -> 300 ;
301 [label="returns_lag_1 <= -0.74\nmse = 0.0\nsamples = 16\nvalue = -0.0", fillcolor="#e581396b"] ;
299 -> 301 ;
302 [label="mse = 0.0\nsamples = 1\nvalue = -0.0", fillcolor="#e581395b"] ;
301 -> 302 ;
303 [label="BTC/USD_returns_lag_2 <= 1.82\nmse = 0.0\nsamples = 15\nvalue = -0.0", fillcolor="#e581396c"] ;
301 -> 303 ;
304 [label="BTC/USD_returns_lag_3 <= -0.66\nmse = 0.0\nsamples = 13\nvalue = -0.0", fillcolor="#e581396c"] ;
303 -> 304 ;
305 [label="mse = 0.0\nsamples = 5\nvalue = -0.0", fillcolor="#e581396f"] ;
304 -> 305 ;
306 [label="BTC/USD_returns_lag_4 <= 0.09\nmse = 0.0\nsamples = 8\nvalue = -0.0", fillcolor="#e581396b"] ;
304 -> 306 ;
307 [label="mse = 0.0\nsamples = 6\nvalue = -0.0", fillcolor="#e5813969"] ;
306 -> 307 ;
308 [label="mse = -0.0\nsamples = 2\nvalue = 0.0", fillcolor="#e5813970"] ;
306 -> 308 ;
309 [label="mse = 0.0\nsamples = 2\nvalue = -0.0", fillcolor="#e5813966"] ;
303 -> 309 ;
310 [label="mse = 0.0\nsamples = 1\nvalue = -0.0", fillcolor="#e581395b"] ;
268 -> 310 ;
311 [label="returns_lag_3 <= 0.56\nmse = 0.0\nsamples = 9\nvalue = -0.0", fillcolor="#e5813965"] ;
181 -> 311 ;
312 [label="mse = 0.0\nsamples = 1\nvalue = -0.0", fillcolor="#e5813946"] ;
311 -> 312 ;
313 [label="BTC/USD_returns_lag_1 <= -0.82\nmse = 0.0\nsamples = 8\nvalue = -0.0", fillcolor="#e581396d"] ;
311 -> 313 ;
314 [label="returns_lag_1 <= -0.91\nmse = 0.0\nsamples = 5\nvalue = 0.0", fillcolor="#e5813970"] ;
313 -> 314 ;
315 [label="mse = 0.0\nsamples = 4\nvalue = -0.0", fillcolor="#e581396f"] ;
314 -> 315 ;
316 [label="mse = 0.0\nsamples = 1\nvalue = 0.0", fillcolor="#e5813977"] ;
314 -> 316 ;
317 [label="mse = 0.0\nsamples = 3\nvalue = -0.0", fillcolor="#e581396a"] ;
313 -> 317 ;
318 [label="returns_lag_3 <= -0.17\nmse = 0.0\nsamples = 17\nvalue = 0.0", fillcolor="#e5813972"] ;
178 -> 318 ;
319 [label="returns_lag_3 <= -0.57\nmse = 0.0\nsamples = 5\nvalue = 0.0", fillcolor="#e5813979"] ;
318 -> 319 ;
320 [label="mse = 0.0\nsamples = 3\nvalue = 0.0", fillcolor="#e5813972"] ;
319 -> 320 ;
321 [label="mse = 0.0\nsamples = 2\nvalue = 0.0", fillcolor="#e581397f"] ;
319 -> 321 ;
322 [label="returns_lag_3 <= 0.19\nmse = 0.0\nsamples = 12\nvalue = -0.0", fillcolor="#e581396e"] ;
318 -> 322 ;
323 [label="mse = 0.0\nsamples = 9\nvalue = -0.0", fillcolor="#e5813970"] ;
322 -> 323 ;
324 [label="returns_lag_4 <= 0.64\nmse = 0.0\nsamples = 3\nvalue = -0.0", fillcolor="#e5813969"] ;
322 -> 324 ;
325 [label="mse = 0.0\nsamples = 1\nvalue = -0.0", fillcolor="#e581395c"] ;
324 -> 325 ;
326 [label="mse = 0.0\nsamples = 2\nvalue = -0.0", fillcolor="#e581396c"] ;
324 -> 326 ;
327 [label="returns_lag_4 <= 0.66\nmse = 0.0\nsamples = 4\nvalue = -0.0", fillcolor="#e5813960"] ;
177 -> 327 ;
328 [label="mse = 0.0\nsamples = 3\nvalue = -0.0", fillcolor="#e581396b"] ;
327 -> 328 ;
329 [label="mse = 0.0\nsamples = 1\nvalue = -0.0", fillcolor="#e581394b"] ;
327 -> 329 ;
330 [label="BTC/USD_returns_lag_3 <= -1.24\nmse = 0.0\nsamples = 3\nvalue = -0.0", fillcolor="#e581395d"] ;
176 -> 330 ;
331 [label="mse = 0.0\nsamples = 1\nvalue = -0.0", fillcolor="#e5813968"] ;
330 -> 331 ;
332 [label="mse = 0.0\nsamples = 2\nvalue = -0.0", fillcolor="#e5813959"] ;
330 -> 332 ;
333 [label="returns_lag_1 <= -0.37\nmse = 0.0\nsamples = 319\nvalue = -0.0", fillcolor="#e581396e"] ;
65 -> 333 ;
334 [label="BTC/USD_returns_lag_3 <= 0.11\nmse = 0.0\nsamples = 2\nvalue = 0.0", fillcolor="#e5813988"] ;
333 -> 334 ;
335 [label="mse = 0.0\nsamples = 1\nvalue = 0.0", fillcolor="#e581399e"] ;
334 -> 335 ;
336 [label="mse = -0.0\nsamples = 1\nvalue = 0.0", fillcolor="#e5813972"] ;
334 -> 336 ;
337 [label="returns_lag_2 <= 1.85\nmse = 0.0\nsamples = 317\nvalue = -0.0", fillcolor="#e581396e"] ;
333 -> 337 ;
338 [label="BTC/USD_returns_lag_2 <= -3.15\nmse = 0.0\nsamples = 311\nvalue = -0.0", fillcolor="#e581396e"] ;
337 -> 338 ;
339 [label="returns_lag_1 <= -0.18\nmse = 0.0\nsamples = 3\nvalue = 0.0", fillcolor="#e581397e"] ;
338 -> 339 ;
340 [label="BTC/USD_returns_lag_4 <= -0.09\nmse = 0.0\nsamples = 2\nvalue = -0.0", fillcolor="#e581396a"] ;
339 -> 340 ;
341 [label="mse = 0.0\nsamples = 1\nvalue = -0.0", fillcolor="#e5813964"] ;
340 -> 341 ;
342 [label="mse = 0.0\nsamples = 1\nvalue = 0.0", fillcolor="#e5813970"] ;
340 -> 342 ;
343 [label="mse = 0.0\nsamples = 1\nvalue = 0.0", fillcolor="#e5813992"] ;
339 -> 343 ;
344 [label="BTC/USD_returns_lag_2 <= -2.33\nmse = 0.0\nsamples = 308\nvalue = -0.0", fillcolor="#e581396e"] ;
338 -> 344 ;
345 [label="mse = 0.0\nsamples = 3\nvalue = -0.0", fillcolor="#e581395f"] ;
344 -> 345 ;
346 [label="returns_lag_3 <= 0.72\nmse = 0.0\nsamples = 305\nvalue = -0.0", fillcolor="#e581396e"] ;
344 -> 346 ;
347 [label="BTC/USD_returns_lag_4 <= 0.57\nmse = 0.0\nsamples = 291\nvalue = -0.0", fillcolor="#e581396e"] ;
346 -> 347 ;
348 [label="returns_lag_2 <= -0.86\nmse = 0.0\nsamples = 263\nvalue = -0.0", fillcolor="#e581396f"] ;
347 -> 348 ;
349 [label="BTC/USD_returns_lag_1 <= -0.18\nmse = 0.0\nsamples = 23\nvalue = -0.0", fillcolor="#e581396b"] ;
348 -> 349 ;
350 [label="BTC/USD_returns_lag_2 <= -0.89\nmse = 0.0\nsamples = 20\nvalue = -0.0", fillcolor="#e581396e"] ;
349 -> 350 ;
351 [label="returns_lag_2 <= -2.19\nmse = 0.0\nsamples = 17\nvalue = 0.0", fillcolor="#e5813970"] ;
350 -> 351 ;
352 [label="mse = 0.0\nsamples = 1\nvalue = 0.0", fillcolor="#e581397b"] ;
351 -> 352 ;
353 [label="mse = 0.0\nsamples = 16\nvalue = -0.0", fillcolor="#e581396f"] ;
351 -> 353 ;
354 [label="returns_lag_1 <= -0.18\nmse = 0.0\nsamples = 3\nvalue = -0.0", fillcolor="#e5813964"] ;
350 -> 354 ;
355 [label="BTC/USD_returns_lag_4 <= -0.09\nmse = 0.0\nsamples = 2\nvalue = -0.0", fillcolor="#e5813961"] ;
354 -> 355 ;
356 [label="mse = 0.0\nsamples = 1\nvalue = -0.0", fillcolor="#e581395a"] ;
355 -> 356 ;
357 [label="mse = 0.0\nsamples = 1\nvalue = -0.0", fillcolor="#e5813964"] ;
355 -> 357 ;
358 [label="mse = 0.0\nsamples = 1\nvalue = 0.0", fillcolor="#e5813970"] ;
354 -> 358 ;
359 [label="returns_lag_1 <= -0.18\nmse = 0.0\nsamples = 3\nvalue = -0.0", fillcolor="#e581395c"] ;
349 -> 359 ;
360 [label="mse = 0.0\nsamples = 1\nvalue = -0.0", fillcolor="#e581394d"] ;
359 -> 360 ;
361 [label="mse = 0.0\nsamples = 2\nvalue = -0.0", fillcolor="#e581396a"] ;
359 -> 361 ;
362 [label="BTC/USD_returns_lag_1 <= -0.19\nmse = 0.0\nsamples = 240\nvalue = -0.0", fillcolor="#e581396f"] ;
348 -> 362 ;
363 [label="returns_lag_3 <= 0.2\nmse = 0.0\nsamples = 162\nvalue = -0.0", fillcolor="#e581396e"] ;
362 -> 363 ;
364 [label="returns_lag_1 <= -0.19\nmse = 0.0\nsamples = 143\nvalue = -0.0", fillcolor="#e581396d"] ;
363 -> 364 ;
365 [label="BTC/USD_returns_lag_3 <= -2.1\nmse = 0.0\nsamples = 92\nvalue = -0.0", fillcolor="#e581396f"] ;
364 -> 365 ;
366 [label="BTC/USD_returns_lag_2 <= 0.1\nmse = 0.0\nsamples = 2\nvalue = -0.0", fillcolor="#e5813962"] ;
365 -> 366 ;
367 [label="mse = 0.0\nsamples = 1\nvalue = 0.0", fillcolor="#e5813970"] ;
366 -> 367 ;
368 [label="mse = 0.0\nsamples = 1\nvalue = -0.0", fillcolor="#e581395b"] ;
366 -> 368 ;
369 [label="returns_lag_1 <= -0.19\nmse = 0.0\nsamples = 90\nvalue = -0.0", fillcolor="#e581396f"] ;
365 -> 369 ;
370 [label="BTC/USD_returns_lag_4 <= 0.09\nmse = 0.0\nsamples = 86\nvalue = -0.0", fillcolor="#e581396f"] ;
369 -> 370 ;
371 [label="returns_lag_1 <= -0.36\nmse = 0.0\nsamples = 64\nvalue = -0.0", fillcolor="#e581396f"] ;
370 -> 371 ;
372 [label="returns_lag_1 <= -0.36\nmse = 0.0\nsamples = 7\nvalue = 0.0", fillcolor="#e5813973"] ;
371 -> 372 ;
373 [label="BTC/USD_returns_lag_1 <= -0.37\nmse = 0.0\nsamples = 6\nvalue = -0.0", fillcolor="#e581396f"] ;
372 -> 373 ;
374 [label="mse = -0.0\nsamples = 1\nvalue = 0.0", fillcolor="#e5813974"] ;
373 -> 374 ;
375 [label="mse = 0.0\nsamples = 5\nvalue = -0.0", fillcolor="#e581396d"] ;
373 -> 375 ;
376 [label="mse = -0.0\nsamples = 1\nvalue = 0.0", fillcolor="#e5813987"] ;
372 -> 376 ;
377 [label="BTC/USD_returns_lag_1 <= -0.36\nmse = 0.0\nsamples = 57\nvalue = -0.0", fillcolor="#e581396f"] ;
371 -> 377 ;
378 [label="mse = 0.0\nsamples = 1\nvalue = -0.0", fillcolor="#e5813960"] ;
377 -> 378 ;
379 [label="BTC/USD_returns_lag_2 <= 0.2\nmse = 0.0\nsamples = 56\nvalue = -0.0", fillcolor="#e581396f"] ;
377 -> 379 ;
380 [label="mse = 0.0\nsamples = 40\nvalue = -0.0", fillcolor="#e5813970"] ;
379 -> 380 ;
381 [label="BTC/USD_returns_lag_2 <= 0.2\nmse = 0.0\nsamples = 16\nvalue = -0.0", fillcolor="#e581396d"] ;
379 -> 381 ;
382 [label="mse = 0.0\nsamples = 1\nvalue = -0.0", fillcolor="#e5813950"] ;
381 -> 382 ;
383 [label="BTC/USD_returns_lag_3 <= -0.18\nmse = 0.0\nsamples = 15\nvalue = -0.0", fillcolor="#e581396f"] ;
381 -> 383 ;
384 [label="returns_lag_2 <= 0.2\nmse = 0.0\nsamples = 4\nvalue = -0.0", fillcolor="#e581396b"] ;
383 -> 384 ;
385 [label="mse = 0.0\nsamples = 1\nvalue = -0.0", fillcolor="#e5813956"] ;
384 -> 385 ;
386 [label="mse = 0.0\nsamples = 3\nvalue = 0.0", fillcolor="#e5813971"] ;
384 -> 386 ;
387 [label="mse = 0.0\nsamples = 11\nvalue = 0.0", fillcolor="#e5813970"] ;
383 -> 387 ;
388 [label="BTC/USD_returns_lag_1 <= -0.19\nmse = 0.0\nsamples = 22\nvalue = -0.0", fillcolor="#e581396d"] ;
370 -> 388 ;
389 [label="returns_lag_4 <= 0.19\nmse = 0.0\nsamples = 20\nvalue = -0.0", fillcolor="#e581396e"] ;
388 -> 389 ;
390 [label="BTC/USD_returns_lag_4 <= 0.19\nmse = 0.0\nsamples = 5\nvalue = -0.0", fillcolor="#e5813969"] ;
389 -> 390 ;
391 [label="mse = 0.0\nsamples = 4\nvalue = -0.0", fillcolor="#e581396b"] ;
390 -> 391 ;
392 [label="mse = -0.0\nsamples = 1\nvalue = -0.0", fillcolor="#e581395e"] ;
390 -> 392 ;
393 [label="BTC/USD_returns_lag_2 <= 0.2\nmse = 0.0\nsamples = 15\nvalue = 0.0", fillcolor="#e5813970"] ;
389 -> 393 ;
394 [label="mse = 0.0\nsamples = 10\nvalue = -0.0", fillcolor="#e581396f"] ;
393 -> 394 ;
395 [label="returns_lag_2 <= 0.21\nmse = 0.0\nsamples = 5\nvalue = 0.0", fillcolor="#e5813974"] ;
393 -> 395 ;
396 [label="BTC/USD_returns_lag_3 <= -0.18\nmse = 0.0\nsamples = 2\nvalue = 0.0", fillcolor="#e581397a"] ;
395 -> 396 ;
397 [label="mse = 0.0\nsamples = 1\nvalue = 0.0", fillcolor="#e581397f"] ;
396 -> 397 ;
398 [label="mse = -0.0\nsamples = 1\nvalue = 0.0", fillcolor="#e5813976"] ;
396 -> 398 ;
399 [label="mse = 0.0\nsamples = 3\nvalue = 0.0", fillcolor="#e5813970"] ;
395 -> 399 ;
400 [label="returns_lag_3 <= -0.08\nmse = 0.0\nsamples = 2\nvalue = -0.0", fillcolor="#e5813964"] ;
388 -> 400 ;
401 [label="mse = 0.0\nsamples = 1\nvalue = -0.0", fillcolor="#e581395f"] ;
400 -> 401 ;
402 [label="mse = 0.0\nsamples = 1\nvalue = -0.0", fillcolor="#e5813967"] ;
400 -> 402 ;
403 [label="returns_lag_2 <= 0.11\nmse = 0.0\nsamples = 4\nvalue = 0.0", fillcolor="#e5813975"] ;
369 -> 403 ;
404 [label="mse = 0.0\nsamples = 1\nvalue = 0.0", fillcolor="#e5813989"] ;
403 -> 404 ;
405 [label="mse = 0.0\nsamples = 3\nvalue = 0.0", fillcolor="#e5813971"] ;
403 -> 405 ;
406 [label="returns_lag_1 <= -0.19\nmse = 0.0\nsamples = 51\nvalue = -0.0", fillcolor="#e581396b"] ;
364 -> 406 ;
407 [label="returns_lag_1 <= -0.19\nmse = 0.0\nsamples = 15\nvalue = -0.0", fillcolor="#e5813967"] ;
406 -> 407 ;
408 [label="BTC/USD_returns_lag_1 <= -0.19\nmse = 0.0\nsamples = 9\nvalue = -0.0", fillcolor="#e581396b"] ;
407 -> 408 ;
409 [label="mse = -0.0\nsamples = 1\nvalue = -0.0", fillcolor="#e5813965"] ;
408 -> 409 ;
410 [label="returns_lag_1 <= -0.19\nmse = 0.0\nsamples = 8\nvalue = -0.0", fillcolor="#e581396d"] ;
408 -> 410 ;
411 [label="mse = 0.0\nsamples = 5\nvalue = -0.0", fillcolor="#e581396f"] ;
410 -> 411 ;
412 [label="BTC/USD_returns_lag_4 <= -0.28\nmse = 0.0\nsamples = 3\nvalue = -0.0", fillcolor="#e581396a"] ;
410 -> 412 ;
413 [label="mse = 0.0\nsamples = 1\nvalue = -0.0", fillcolor="#e5813961"] ;
412 -> 413 ;
414 [label="mse = 0.0\nsamples = 2\nvalue = -0.0", fillcolor="#e581396c"] ;
412 -> 414 ;
415 [label="returns_lag_1 <= -0.19\nmse = 0.0\nsamples = 6\nvalue = -0.0", fillcolor="#e5813962"] ;
407 -> 415 ;
416 [label="returns_lag_1 <= -0.19\nmse = 0.0\nsamples = 5\nvalue = -0.0", fillcolor="#e5813963"] ;
415 -> 416 ;
417 [label="mse = 0.0\nsamples = 2\nvalue = -0.0", fillcolor="#e581395e"] ;
416 -> 417 ;
418 [label="BTC/USD_returns_lag_3 <= -0.65\nmse = 0.0\nsamples = 3\nvalue = -0.0", fillcolor="#e5813969"] ;
416 -> 418 ;
419 [label="mse = 0.0\nsamples = 1\nvalue = 0.0", fillcolor="#e5813970"] ;
418 -> 419 ;
420 [label="mse = 0.0\nsamples = 2\nvalue = -0.0", fillcolor="#e5813967"] ;
418 -> 420 ;
421 [label="mse = 0.0\nsamples = 1\nvalue = -0.0", fillcolor="#e5813955"] ;
415 -> 421 ;
422 [label="returns_lag_1 <= -0.19\nmse = 0.0\nsamples = 36\nvalue = -0.0", fillcolor="#e581396d"] ;
406 -> 422 ;
423 [label="returns_lag_1 <= -0.19\nmse = 0.0\nsamples = 24\nvalue = 0.0", fillcolor="#e5813970"] ;
422 -> 423 ;
424 [label="returns_lag_4 <= -1.3\nmse = 0.0\nsamples = 23\nvalue = -0.0", fillcolor="#e581396f"] ;
423 -> 424 ;
425 [label="mse = 0.0\nsamples = 1\nvalue = -0.0", fillcolor="#e581395d"] ;
424 -> 425 ;
426 [label="mse = 0.0\nsamples = 22\nvalue = -0.0", fillcolor="#e581396f"] ;
424 -> 426 ;
427 [label="mse = -0.0\nsamples = 1\nvalue = 0.0", fillcolor="#e581397e"] ;
423 -> 427 ;
428 [label="returns_lag_2 <= 0.19\nmse = 0.0\nsamples = 12\nvalue = -0.0", fillcolor="#e5813969"] ;
422 -> 428 ;
429 [label="returns_lag_4 <= -0.09\nmse = 0.0\nsamples = 8\nvalue = -0.0", fillcolor="#e5813968"] ;
428 -> 429 ;
430 [label="mse = 0.0\nsamples = 2\nvalue = 0.0", fillcolor="#e5813970"] ;
429 -> 430 ;
431 [label="returns_lag_3 <= -0.08\nmse = 0.0\nsamples = 6\nvalue = -0.0", fillcolor="#e5813965"] ;
429 -> 431 ;
432 [label="mse = 0.0\nsamples = 1\nvalue = -0.0", fillcolor="#e5813958"] ;
431 -> 432 ;
433 [label="BTC/USD_returns_lag_4 <= 0.1\nmse = 0.0\nsamples = 5\nvalue = -0.0", fillcolor="#e5813966"] ;
431 -> 433 ;
434 [label="mse = 0.0\nsamples = 3\nvalue = -0.0", fillcolor="#e5813964"] ;
433 -> 434 ;
435 [label="mse = 0.0\nsamples = 2\nvalue = -0.0", fillcolor="#e5813968"] ;
433 -> 435 ;
436 [label="mse = 0.0\nsamples = 4\nvalue = -0.0", fillcolor="#e581396f"] ;
428 -> 436 ;
437 [label="BTC/USD_returns_lag_3 <= 0.2\nmse = 0.0\nsamples = 19\nvalue = 0.0", fillcolor="#e5813972"] ;
363 -> 437 ;
438 [label="mse = 0.0\nsamples = 1\nvalue = 0.0", fillcolor="#e5813996"] ;
437 -> 438 ;
439 [label="returns_lag_3 <= 0.49\nmse = 0.0\nsamples = 18\nvalue = 0.0", fillcolor="#e5813971"] ;
437 -> 439 ;
440 [label="mse = 0.0\nsamples = 16\nvalue = 0.0", fillcolor="#e5813970"] ;
439 -> 440 ;
441 [label="BTC/USD_returns_lag_2 <= 0.1\nmse = 0.0\nsamples = 2\nvalue = 0.0", fillcolor="#e5813977"] ;
439 -> 441 ;
442 [label="mse = 0.0\nsamples = 1\nvalue = 0.0", fillcolor="#e5813970"] ;
441 -> 442 ;
443 [label="mse = 0.0\nsamples = 1\nvalue = 0.0", fillcolor="#e581397e"] ;
441 -> 443 ;
444 [label="BTC/USD_returns_lag_1 <= -0.18\nmse = 0.0\nsamples = 78\nvalue = 0.0", fillcolor="#e5813971"] ;
362 -> 444 ;
445 [label="returns_lag_4 <= -0.18\nmse = 0.0\nsamples = 39\nvalue = 0.0", fillcolor="#e5813974"] ;
444 -> 445 ;
446 [label="returns_lag_4 <= -0.18\nmse = 0.0\nsamples = 7\nvalue = 0.0", fillcolor="#e581397a"] ;
445 -> 446 ;
447 [label="BTC/USD_returns_lag_3 <= -2.71\nmse = 0.0\nsamples = 6\nvalue = 0.0", fillcolor="#e5813972"] ;
446 -> 447 ;
448 [label="mse = 0.0\nsamples = 1\nvalue = 0.0", fillcolor="#e581397b"] ;
447 -> 448 ;
449 [label="returns_lag_3 <= 0.29\nmse = 0.0\nsamples = 5\nvalue = -0.0", fillcolor="#e5813970"] ;
447 -> 449 ;
450 [label="mse = 0.0\nsamples = 4\nvalue = -0.0", fillcolor="#e581396e"] ;
449 -> 450 ;
451 [label="mse = 0.0\nsamples = 1\nvalue = 0.0", fillcolor="#e581397a"] ;
449 -> 451 ;
452 [label="mse = 0.0\nsamples = 1\nvalue = 0.0", fillcolor="#e5813991"] ;
446 -> 452 ;
453 [label="BTC/USD_returns_lag_1 <= -0.18\nmse = 0.0\nsamples = 32\nvalue = 0.0", fillcolor="#e5813973"] ;
445 -> 453 ;
454 [label="BTC/USD_returns_lag_3 <= 0.57\nmse = 0.0\nsamples = 27\nvalue = 0.0", fillcolor="#e5813971"] ;
453 -> 454 ;
455 [label="returns_lag_1 <= -0.18\nmse = 0.0\nsamples = 26\nvalue = 0.0", fillcolor="#e5813971"] ;
454 -> 455 ;
456 [label="mse = 0.0\nsamples = 18\nvalue = 0.0", fillcolor="#e5813972"] ;
455 -> 456 ;
457 [label="returns_lag_2 <= 0.19\nmse = 0.0\nsamples = 8\nvalue = -0.0", fillcolor="#e581396f"] ;
455 -> 457 ;
458 [label="mse = 0.0\nsamples = 6\nvalue = 0.0", fillcolor="#e5813971"] ;
457 -> 458 ;
459 [label="BTC/USD_returns_lag_2 <= 0.63\nmse = 0.0\nsamples = 2\nvalue = -0.0", fillcolor="#e5813966"] ;
457 -> 459 ;
460 [label="mse = 0.0\nsamples = 1\nvalue = -0.0", fillcolor="#e581395c"] ;
459 -> 460 ;
461 [label="mse = 0.0\nsamples = 1\nvalue = 0.0", fillcolor="#e5813970"] ;
459 -> 461 ;
462 [label="mse = 0.0\nsamples = 1\nvalue = 0.0", fillcolor="#e5813978"] ;
454 -> 462 ;
463 [label="returns_lag_2 <= 0.1\nmse = 0.0\nsamples = 5\nvalue = 0.0", fillcolor="#e581397a"] ;
453 -> 463 ;
464 [label="BTC/USD_returns_lag_1 <= -0.18\nmse = 0.0\nsamples = 4\nvalue = 0.0", fillcolor="#e5813976"] ;
463 -> 464 ;
465 [label="mse = 0.0\nsamples = 2\nvalue = 0.0", fillcolor="#e5813972"] ;
464 -> 465 ;
466 [label="BTC/USD_returns_lag_4 <= 0.0\nmse = 0.0\nsamples = 2\nvalue = 0.0", fillcolor="#e581397d"] ;
464 -> 466 ;
467 [label="mse = 0.0\nsamples = 1\nvalue = 0.0", fillcolor="#e5813972"] ;
466 -> 467 ;
468 [label="mse = 0.0\nsamples = 1\nvalue = 0.0", fillcolor="#e5813983"] ;
466 -> 468 ;
469 [label="mse = 0.0\nsamples = 1\nvalue = 0.0", fillcolor="#e5813989"] ;
463 -> 469 ;
470 [label="BTC/USD_returns_lag_1 <= -0.18\nmse = 0.0\nsamples = 39\nvalue = -0.0", fillcolor="#e581396e"] ;
444 -> 470 ;
471 [label="returns_lag_1 <= -0.18\nmse = 0.0\nsamples = 35\nvalue = -0.0", fillcolor="#e581396f"] ;
470 -> 471 ;
472 [label="returns_lag_1 <= -0.18\nmse = 0.0\nsamples = 21\nvalue = -0.0", fillcolor="#e581396d"] ;
471 -> 472 ;
473 [label="returns_lag_3 <= 0.1\nmse = 0.0\nsamples = 16\nvalue = -0.0", fillcolor="#e581396f"] ;
472 -> 473 ;
474 [label="BTC/USD_returns_lag_2 <= 0.19\nmse = 0.0\nsamples = 11\nvalue = 0.0", fillcolor="#e5813970"] ;
473 -> 474 ;
475 [label="mse = 0.0\nsamples = 6\nvalue = 0.0", fillcolor="#e5813972"] ;
474 -> 475 ;
476 [label="BTC/USD_returns_lag_2 <= 0.19\nmse = 0.0\nsamples = 5\nvalue = -0.0", fillcolor="#e581396e"] ;
474 -> 476 ;
477 [label="mse = 0.0\nsamples = 1\nvalue = -0.0", fillcolor="#e5813962"] ;
476 -> 477 ;
478 [label="mse = 0.0\nsamples = 4\nvalue = 0.0", fillcolor="#e5813970"] ;
476 -> 478 ;
479 [label="mse = 0.0\nsamples = 5\nvalue = -0.0", fillcolor="#e581396d"] ;
473 -> 479 ;
480 [label="returns_lag_1 <= -0.18\nmse = 0.0\nsamples = 5\nvalue = -0.0", fillcolor="#e5813968"] ;
472 -> 480 ;
481 [label="returns_lag_3 <= 0.37\nmse = 0.0\nsamples = 3\nvalue = -0.0", fillcolor="#e5813962"] ;
480 -> 481 ;
482 [label="mse = 0.0\nsamples = 2\nvalue = -0.0", fillcolor="#e581395f"] ;
481 -> 482 ;
483 [label="mse = 0.0\nsamples = 1\nvalue = 0.0", fillcolor="#e5813972"] ;
481 -> 483 ;
484 [label="mse = 0.0\nsamples = 2\nvalue = 0.0", fillcolor="#e5813970"] ;
480 -> 484 ;
485 [label="returns_lag_4 <= 0.18\nmse = 0.0\nsamples = 14\nvalue = 0.0", fillcolor="#e5813973"] ;
471 -> 485 ;
486 [label="returns_lag_4 <= -0.62\nmse = 0.0\nsamples = 13\nvalue = 0.0", fillcolor="#e5813971"] ;
485 -> 486 ;
487 [label="mse = 0.0\nsamples = 1\nvalue = 0.0", fillcolor="#e581397f"] ;
486 -> 487 ;
488 [label="mse = 0.0\nsamples = 12\nvalue = 0.0", fillcolor="#e5813970"] ;
486 -> 488 ;
489 [label="mse = 0.0\nsamples = 1\nvalue = 0.0", fillcolor="#e581397f"] ;
485 -> 489 ;
490 [label="BTC/USD_returns_lag_2 <= 0.1\nmse = 0.0\nsamples = 4\nvalue = -0.0", fillcolor="#e5813968"] ;
470 -> 490 ;
491 [label="returns_lag_2 <= -0.07\nmse = 0.0\nsamples = 2\nvalue = -0.0", fillcolor="#e581396f"] ;
490 -> 491 ;
492 [label="mse = 0.0\nsamples = 1\nvalue = -0.0", fillcolor="#e581396a"] ;
491 -> 492 ;
493 [label="mse = 0.0\nsamples = 1\nvalue = 0.0", fillcolor="#e5813972"] ;
491 -> 493 ;
494 [label="mse = 0.0\nsamples = 2\nvalue = -0.0", fillcolor="#e5813964"] ;
490 -> 494 ;
495 [label="returns_lag_4 <= 0.57\nmse = 0.0\nsamples = 28\nvalue = -0.0", fillcolor="#e581396b"] ;
347 -> 495 ;
496 [label="mse = 0.0\nsamples = 1\nvalue = -0.0", fillcolor="#e5813943"] ;
495 -> 496 ;
497 [label="returns_lag_3 <= -0.18\nmse = 0.0\nsamples = 27\nvalue = -0.0", fillcolor="#e581396c"] ;
495 -> 497 ;
498 [label="BTC/USD_returns_lag_3 <= -0.18\nmse = 0.0\nsamples = 4\nvalue = -0.0", fillcolor="#e5813960"] ;
497 -> 498 ;
499 [label="mse = 0.0\nsamples = 3\nvalue = -0.0", fillcolor="#e5813964"] ;
498 -> 499 ;
500 [label="mse = -0.0\nsamples = 1\nvalue = -0.0", fillcolor="#e581394f"] ;
498 -> 500 ;
501 [label="returns_lag_2 <= 0.84\nmse = 0.0\nsamples = 23\nvalue = -0.0", fillcolor="#e581396d"] ;
497 -> 501 ;
502 [label="BTC/USD_returns_lag_4 <= 3.23\nmse = 0.0\nsamples = 18\nvalue = -0.0", fillcolor="#e581396f"] ;
501 -> 502 ;
503 [label="returns_lag_1 <= -0.28\nmse = 0.0\nsamples = 17\nvalue = -0.0", fillcolor="#e5813970"] ;
502 -> 503 ;
504 [label="mse = 0.0\nsamples = 1\nvalue = -0.0", fillcolor="#e5813962"] ;
503 -> 504 ;
505 [label="BTC/USD_returns_lag_4 <= 1.86\nmse = 0.0\nsamples = 16\nvalue = 0.0", fillcolor="#e5813970"] ;
503 -> 505 ;
506 [label="mse = 0.0\nsamples = 14\nvalue = 0.0", fillcolor="#e5813970"] ;
505 -> 506 ;
507 [label="mse = 0.0\nsamples = 2\nvalue = -0.0", fillcolor="#e581396a"] ;
505 -> 507 ;
508 [label="mse = -0.0\nsamples = 1\nvalue = -0.0", fillcolor="#e581395e"] ;
502 -> 508 ;
509 [label="returns_lag_2 <= 1.12\nmse = 0.0\nsamples = 5\nvalue = -0.0", fillcolor="#e5813967"] ;
501 -> 509 ;
510 [label="returns_lag_4 <= 0.93\nmse = 0.0\nsamples = 2\nvalue = -0.0", fillcolor="#e5813954"] ;
509 -> 510 ;
511 [label="mse = 0.0\nsamples = 1\nvalue = -0.0", fillcolor="#e5813943"] ;
510 -> 511 ;
512 [label="mse = 0.0\nsamples = 1\nvalue = -0.0", fillcolor="#e5813965"] ;
510 -> 512 ;
513 [label="BTC/USD_returns_lag_3 <= 0.37\nmse = 0.0\nsamples = 3\nvalue = -0.0", fillcolor="#e581396f"] ;
509 -> 513 ;
514 [label="mse = 0.0\nsamples = 2\nvalue = 0.0", fillcolor="#e5813973"] ;
513 -> 514 ;
515 [label="mse = 0.0\nsamples = 1\nvalue = -0.0", fillcolor="#e581395c"] ;
513 -> 515 ;
516 [label="returns_lag_1 <= -0.18\nmse = 0.0\nsamples = 14\nvalue = -0.0", fillcolor="#e5813968"] ;
346 -> 516 ;
517 [label="returns_lag_3 <= 0.96\nmse = 0.0\nsamples = 10\nvalue = -0.0", fillcolor="#e581396c"] ;
516 -> 517 ;
518 [label="BTC/USD_returns_lag_3 <= 0.94\nmse = 0.0\nsamples = 8\nvalue = -0.0", fillcolor="#e581396e"] ;
517 -> 518 ;
519 [label="mse = 0.0\nsamples = 5\nvalue = 0.0", fillcolor="#e5813970"] ;
518 -> 519 ;
520 [label="BTC/USD_returns_lag_4 <= 0.1\nmse = 0.0\nsamples = 3\nvalue = -0.0", fillcolor="#e581396b"] ;
518 -> 520 ;
521 [label="mse = 0.0\nsamples = 1\nvalue = -0.0", fillcolor="#e5813964"] ;
520 -> 521 ;
522 [label="mse = 0.0\nsamples = 2\nvalue = -0.0", fillcolor="#e581396f"] ;
520 -> 522 ;
523 [label="BTC/USD_returns_lag_4 <= 0.1\nmse = 0.0\nsamples = 2\nvalue = -0.0", fillcolor="#e5813965"] ;
517 -> 523 ;
524 [label="mse = 0.0\nsamples = 1\nvalue = -0.0", fillcolor="#e5813967"] ;
523 -> 524 ;
525 [label="mse = 0.0\nsamples = 1\nvalue = -0.0", fillcolor="#e581395d"] ;
523 -> 525 ;
526 [label="BTC/USD_returns_lag_4 <= 0.28\nmse = 0.0\nsamples = 4\nvalue = -0.0", fillcolor="#e581395d"] ;
516 -> 526 ;
527 [label="BTC/USD_returns_lag_4 <= -0.44\nmse = 0.0\nsamples = 2\nvalue = -0.0", fillcolor="#e5813956"] ;
526 -> 527 ;
528 [label="mse = 0.0\nsamples = 1\nvalue = -0.0", fillcolor="#e581395a"] ;
527 -> 528 ;
529 [label="mse = 0.0\nsamples = 1\nvalue = -0.0", fillcolor="#e5813952"] ;
527 -> 529 ;
530 [label="returns_lag_1 <= -0.18\nmse = 0.0\nsamples = 2\nvalue = -0.0", fillcolor="#e581396c"] ;
526 -> 530 ;
531 [label="mse = 0.0\nsamples = 1\nvalue = -0.0", fillcolor="#e5813966"] ;
530 -> 531 ;
532 [label="mse = -0.0\nsamples = 1\nvalue = 0.0", fillcolor="#e5813972"] ;
530 -> 532 ;
533 [label="mse = 0.0\nsamples = 6\nvalue = 0.0", fillcolor="#e5813977"] ;
337 -> 533 ;
534 [label="returns_lag_3 <= 1.09\nmse = 0.0\nsamples = 68\nvalue = 0.0", fillcolor="#e5813973"] ;
50 -> 534 ;
535 [label="returns_lag_4 <= 0.09\nmse = 0.0\nsamples = 2\nvalue = 0.01", fillcolor="#e58139dd"] ;
534 -> 535 ;
536 [label="mse = 0.0\nsamples = 1\nvalue = 0.0", fillcolor="#e5813978"] ;
535 -> 536 ;
537 [label="mse = 0.0\nsamples = 1\nvalue = 0.01", fillcolor="#e58139ff"] ;
535 -> 537 ;
538 [label="BTC/USD_returns_lag_3 <= 1.09\nmse = 0.0\nsamples = 66\nvalue = -0.0", fillcolor="#e581396e"] ;
534 -> 538 ;
539 [label="mse = 0.0\nsamples = 1\nvalue = 0.0", fillcolor="#e581398d"] ;
538 -> 539 ;
540 [label="returns_lag_3 <= 1.72\nmse = 0.0\nsamples = 65\nvalue = -0.0", fillcolor="#e581396e"] ;
538 -> 540 ;
541 [label="returns_lag_2 <= -3.85\nmse = 0.0\nsamples = 31\nvalue = -0.0", fillcolor="#e5813969"] ;
540 -> 541 ;
542 [label="mse = 0.0\nsamples = 1\nvalue = -0.0", fillcolor="#e5813958"] ;
541 -> 542 ;
543 [label="returns_lag_3 <= 1.45\nmse = 0.0\nsamples = 30\nvalue = -0.0", fillcolor="#e581396a"] ;
541 -> 543 ;
544 [label="BTC/USD_returns_lag_4 <= -0.18\nmse = 0.0\nsamples = 21\nvalue = -0.0", fillcolor="#e581396d"] ;
543 -> 544 ;
545 [label="mse = 0.0\nsamples = 1\nvalue = -0.0", fillcolor="#e581395e"] ;
544 -> 545 ;
546 [label="BTC/USD_returns_lag_1 <= -0.18\nmse = 0.0\nsamples = 20\nvalue = -0.0", fillcolor="#e581396d"] ;
544 -> 546 ;
547 [label="BTC/USD_returns_lag_1 <= -0.28\nmse = 0.0\nsamples = 16\nvalue = -0.0", fillcolor="#e581396e"] ;
546 -> 547 ;
548 [label="BTC/USD_returns_lag_3 <= 1.26\nmse = 0.0\nsamples = 11\nvalue = -0.0", fillcolor="#e581396d"] ;
547 -> 548 ;
549 [label="mse = 0.0\nsamples = 9\nvalue = -0.0", fillcolor="#e581396e"] ;
548 -> 549 ;
550 [label="returns_lag_1 <= -1.07\nmse = 0.0\nsamples = 2\nvalue = -0.0", fillcolor="#e5813966"] ;
548 -> 550 ;
551 [label="mse = 0.0\nsamples = 1\nvalue = -0.0", fillcolor="#e581395a"] ;
550 -> 551 ;
552 [label="mse = 0.0\nsamples = 1\nvalue = 0.0", fillcolor="#e5813972"] ;
550 -> 552 ;
553 [label="mse = 0.0\nsamples = 5\nvalue = 0.0", fillcolor="#e5813971"] ;
547 -> 553 ;
554 [label="BTC/USD_returns_lag_1 <= -0.18\nmse = 0.0\nsamples = 4\nvalue = -0.0", fillcolor="#e581396a"] ;
546 -> 554 ;
555 [label="mse = 0.0\nsamples = 3\nvalue = -0.0", fillcolor="#e5813967"] ;
554 -> 555 ;
556 [label="mse = 0.0\nsamples = 1\nvalue = 0.0", fillcolor="#e5813970"] ;
554 -> 556 ;
557 [label="returns_lag_3 <= 1.51\nmse = 0.0\nsamples = 9\nvalue = -0.0", fillcolor="#e5813964"] ;
543 -> 557 ;
558 [label="BTC/USD_returns_lag_2 <= 0.65\nmse = 0.0\nsamples = 2\nvalue = -0.0", fillcolor="#e5813959"] ;
557 -> 558 ;
559 [label="mse = 0.0\nsamples = 1\nvalue = -0.0", fillcolor="#e581394d"] ;
558 -> 559 ;
560 [label="mse = -0.0\nsamples = 1\nvalue = -0.0", fillcolor="#e581395c"] ;
558 -> 560 ;
561 [label="BTC/USD_returns_lag_1 <= -2.15\nmse = 0.0\nsamples = 7\nvalue = -0.0", fillcolor="#e581396a"] ;
557 -> 561 ;
562 [label="mse = 0.0\nsamples = 1\nvalue = -0.0", fillcolor="#e5813958"] ;
561 -> 562 ;
563 [label="returns_lag_3 <= 1.7\nmse = 0.0\nsamples = 6\nvalue = -0.0", fillcolor="#e581396e"] ;
561 -> 563 ;
564 [label="mse = 0.0\nsamples = 5\nvalue = 0.0", fillcolor="#e5813971"] ;
563 -> 564 ;
565 [label="mse = 0.0\nsamples = 1\nvalue = -0.0", fillcolor="#e581395d"] ;
563 -> 565 ;
566 [label="returns_lag_3 <= 2.03\nmse = 0.0\nsamples = 34\nvalue = 0.0", fillcolor="#e5813973"] ;
540 -> 566 ;
567 [label="returns_lag_1 <= -0.19\nmse = 0.0\nsamples = 7\nvalue = 0.0", fillcolor="#e581397f"] ;
566 -> 567 ;
568 [label="BTC/USD_returns_lag_3 <= 1.81\nmse = 0.0\nsamples = 4\nvalue = 0.0", fillcolor="#e5813984"] ;
567 -> 568 ;
569 [label="mse = 0.0\nsamples = 1\nvalue = 0.0", fillcolor="#e5813971"] ;
568 -> 569 ;
570 [label="mse = 0.0\nsamples = 3\nvalue = 0.0", fillcolor="#e5813986"] ;
568 -> 570 ;
571 [label="mse = 0.0\nsamples = 3\nvalue = 0.0", fillcolor="#e5813971"] ;
567 -> 571 ;
572 [label="BTC/USD_returns_lag_2 <= -1.96\nmse = 0.0\nsamples = 27\nvalue = -0.0", fillcolor="#e581396f"] ;
566 -> 572 ;
573 [label="mse = 0.0\nsamples = 1\nvalue = -0.0", fillcolor="#e5813962"] ;
572 -> 573 ;
574 [label="BTC/USD_returns_lag_3 <= 5.18\nmse = 0.0\nsamples = 26\nvalue = 0.0", fillcolor="#e5813970"] ;
572 -> 574 ;
575 [label="BTC/USD_returns_lag_3 <= 2.42\nmse = 0.0\nsamples = 25\nvalue = -0.0", fillcolor="#e581396f"] ;
574 -> 575 ;
576 [label="mse = 0.0\nsamples = 13\nvalue = 0.0", fillcolor="#e5813972"] ;
575 -> 576 ;
577 [label="mse = 0.0\nsamples = 12\nvalue = -0.0", fillcolor="#e581396d"] ;
575 -> 577 ;
578 [label="mse = -0.0\nsamples = 1\nvalue = 0.0", fillcolor="#e581397b"] ;
574 -> 578 ;
579 [label="returns_lag_1 <= -0.17\nmse = 0.0\nsamples = 3\nvalue = -0.0", fillcolor="#e5813949"] ;
1 -> 579 ;
580 [label="mse = 0.0\nsamples = 1\nvalue = -0.01", fillcolor="#e581392a"] ;
579 -> 580 ;
581 [label="BTC/USD_returns_lag_1 <= -0.17\nmse = 0.0\nsamples = 2\nvalue = -0.0", fillcolor="#e5813969"] ;
579 -> 581 ;
582 [label="mse = 0.0\nsamples = 1\nvalue = 0.0", fillcolor="#e5813970"] ;
581 -> 582 ;
583 [label="mse = 0.0\nsamples = 1\nvalue = -0.0", fillcolor="#e5813962"] ;
581 -> 583 ;
584 [label="BTC/USD_returns_lag_1 <= 0.33\nmse = 0.0\nsamples = 2057\nvalue = 0.0", fillcolor="#e5813971"] ;
0 -> 584 [labeldistance=2.5, labelangle=-45, headlabel="False"] ;
585 [label="returns_lag_2 <= 0.18\nmse = 0.0\nsamples = 1541\nvalue = 0.0", fillcolor="#e5813970"] ;
584 -> 585 ;
586 [label="BTC/USD_returns_lag_3 <= -5.26\nmse = 0.0\nsamples = 1167\nvalue = -0.0", fillcolor="#e581396f"] ;
585 -> 586 ;
587 [label="returns_lag_1 <= 0.18\nmse = 0.0\nsamples = 2\nvalue = 0.0", fillcolor="#e5813987"] ;
586 -> 587 ;
588 [label="mse = 0.0\nsamples = 1\nvalue = 0.0", fillcolor="#e5813981"] ;
587 -> 588 ;
589 [label="mse = -0.0\nsamples = 1\nvalue = 0.0", fillcolor="#e581398b"] ;
587 -> 589 ;
590 [label="returns_lag_2 <= -2.55\nmse = 0.0\nsamples = 1165\nvalue = -0.0", fillcolor="#e581396f"] ;
586 -> 590 ;
591 [label="BTC/USD_returns_lag_2 <= -2.63\nmse = 0.0\nsamples = 17\nvalue = 0.0", fillcolor="#e5813975"] ;
590 -> 591 ;
592 [label="BTC/USD_returns_lag_3 <= -0.17\nmse = 0.0\nsamples = 16\nvalue = 0.0", fillcolor="#e5813971"] ;
591 -> 592 ;
593 [label="mse = 0.0\nsamples = 10\nvalue = -0.0", fillcolor="#e581396f"] ;
592 -> 593 ;
594 [label="returns_lag_4 <= 0.09\nmse = 0.0\nsamples = 6\nvalue = 0.0", fillcolor="#e5813976"] ;
592 -> 594 ;
595 [label="mse = 0.0\nsamples = 4\nvalue = 0.0", fillcolor="#e5813970"] ;
594 -> 595 ;
596 [label="mse = 0.0\nsamples = 2\nvalue = 0.0", fillcolor="#e5813983"] ;
594 -> 596 ;
597 [label="mse = 0.0\nsamples = 1\nvalue = 0.0", fillcolor="#e581399e"] ;
591 -> 597 ;
598 [label="returns_lag_2 <= -0.17\nmse = 0.0\nsamples = 1148\nvalue = -0.0", fillcolor="#e581396f"] ;
590 -> 598 ;
599 [label="returns_lag_4 <= -1.81\nmse = 0.0\nsamples = 328\nvalue = -0.0", fillcolor="#e581396e"] ;
598 -> 599 ;
600 [label="BTC/USD_returns_lag_3 <= 0.71\nmse = 0.0\nsamples = 11\nvalue = -0.0", fillcolor="#e5813965"] ;
599 -> 600 ;
601 [label="BTC/USD_returns_lag_1 <= 0.18\nmse = 0.0\nsamples = 10\nvalue = -0.0", fillcolor="#e5813962"] ;
600 -> 601 ;
602 [label="returns_lag_2 <= -1.3\nmse = 0.0\nsamples = 8\nvalue = -0.0", fillcolor="#e581395e"] ;
601 -> 602 ;
603 [label="mse = 0.0\nsamples = 3\nvalue = -0.0", fillcolor="#e581396d"] ;
602 -> 603 ;
604 [label="BTC/USD_returns_lag_2 <= -0.27\nmse = 0.0\nsamples = 5\nvalue = -0.0", fillcolor="#e5813958"] ;
602 -> 604 ;
605 [label="BTC/USD_returns_lag_1 <= 0.09\nmse = 0.0\nsamples = 3\nvalue = -0.0", fillcolor="#e5813953"] ;
604 -> 605 ;
606 [label="BTC/USD_returns_lag_3 <= 0.18\nmse = 0.0\nsamples = 2\nvalue = -0.0", fillcolor="#e581394e"] ;
605 -> 606 ;
607 [label="mse = 0.0\nsamples = 1\nvalue = -0.0", fillcolor="#e581394a"] ;
606 -> 607 ;
608 [label="mse = -0.0\nsamples = 1\nvalue = -0.0", fillcolor="#e5813952"] ;
606 -> 608 ;
609 [label="mse = -0.0\nsamples = 1\nvalue = -0.0", fillcolor="#e581395e"] ;
605 -> 609 ;
610 [label="returns_lag_4 <= -2.2\nmse = 0.0\nsamples = 2\nvalue = -0.0", fillcolor="#e5813965"] ;
604 -> 610 ;
611 [label="mse = 0.0\nsamples = 1\nvalue = 0.0", fillcolor="#e5813970"] ;
610 -> 611 ;
612 [label="mse = 0.0\nsamples = 1\nvalue = -0.0", fillcolor="#e5813959"] ;
610 -> 612 ;
613 [label="returns_lag_1 <= 0.18\nmse = 0.0\nsamples = 2\nvalue = 0.0", fillcolor="#e5813972"] ;
601 -> 613 ;
614 [label="mse = 0.0\nsamples = 1\nvalue = -0.0", fillcolor="#e581396e"] ;
613 -> 614 ;
615 [label="mse = 0.0\nsamples = 1\nvalue = 0.0", fillcolor="#e581397c"] ;
613 -> 615 ;
616 [label="mse = -0.0\nsamples = 1\nvalue = 0.0", fillcolor="#e5813988"] ;
600 -> 616 ;
617 [label="BTC/USD_returns_lag_2 <= -0.17\nmse = 0.0\nsamples = 317\nvalue = -0.0", fillcolor="#e581396e"] ;
599 -> 617 ;
618 [label="BTC/USD_returns_lag_4 <= 0.19\nmse = 0.0\nsamples = 304\nvalue = -0.0", fillcolor="#e581396e"] ;
617 -> 618 ;
619 [label="returns_lag_4 <= -0.17\nmse = 0.0\nsamples = 255\nvalue = -0.0", fillcolor="#e581396e"] ;
618 -> 619 ;
620 [label="BTC/USD_returns_lag_1 <= 0.19\nmse = 0.0\nsamples = 84\nvalue = -0.0", fillcolor="#e5813970"] ;
619 -> 620 ;
621 [label="returns_lag_3 <= 0.3\nmse = 0.0\nsamples = 83\nvalue = -0.0", fillcolor="#e581396f"] ;
620 -> 621 ;
622 [label="BTC/USD_returns_lag_3 <= -2.05\nmse = 0.0\nsamples = 76\nvalue = 0.0", fillcolor="#e5813970"] ;
621 -> 622 ;
623 [label="BTC/USD_returns_lag_2 <= -1.24\nmse = 0.0\nsamples = 2\nvalue = 0.0", fillcolor="#e5813976"] ;
622 -> 623 ;
624 [label="mse = 0.0\nsamples = 1\nvalue = 0.0", fillcolor="#e5813986"] ;
623 -> 624 ;
625 [label="mse = 0.0\nsamples = 1\nvalue = -0.0", fillcolor="#e581396e"] ;
623 -> 625 ;
626 [label="BTC/USD_returns_lag_4 <= -0.38\nmse = 0.0\nsamples = 74\nvalue = -0.0", fillcolor="#e5813970"] ;
622 -> 626 ;
627 [label="BTC/USD_returns_lag_4 <= -0.39\nmse = 0.0\nsamples = 30\nvalue = -0.0", fillcolor="#e581396e"] ;
626 -> 627 ;
628 [label="returns_lag_2 <= -0.18\nmse = 0.0\nsamples = 29\nvalue = -0.0", fillcolor="#e581396f"] ;
627 -> 628 ;
629 [label="mse = 0.0\nsamples = 26\nvalue = -0.0", fillcolor="#e581396e"] ;
628 -> 629 ;
630 [label="returns_lag_4 <= -0.84\nmse = 0.0\nsamples = 3\nvalue = 0.0", fillcolor="#e5813979"] ;
628 -> 630 ;
631 [label="mse = 0.0\nsamples = 2\nvalue = 0.0", fillcolor="#e581397d"] ;
630 -> 631 ;
632 [label="mse = 0.0\nsamples = 1\nvalue = 0.0", fillcolor="#e5813972"] ;
630 -> 632 ;
633 [label="mse = 0.0\nsamples = 1\nvalue = -0.0", fillcolor="#e581395c"] ;
627 -> 633 ;
634 [label="returns_lag_4 <= -0.37\nmse = 0.0\nsamples = 44\nvalue = 0.0", fillcolor="#e5813971"] ;
626 -> 634 ;
635 [label="BTC/USD_returns_lag_3 <= -0.27\nmse = 0.0\nsamples = 2\nvalue = 0.0", fillcolor="#e5813979"] ;
634 -> 635 ;
636 [label="mse = 0.0\nsamples = 1\nvalue = 0.0", fillcolor="#e5813988"] ;
635 -> 636 ;
637 [label="mse = 0.0\nsamples = 1\nvalue = 0.0", fillcolor="#e5813970"] ;
635 -> 637 ;
638 [label="mse = 0.0\nsamples = 42\nvalue = 0.0", fillcolor="#e5813970"] ;
634 -> 638 ;
639 [label="BTC/USD_returns_lag_3 <= 0.8\nmse = 0.0\nsamples = 7\nvalue = -0.0", fillcolor="#e581396b"] ;
621 -> 639 ;
640 [label="BTC/USD_returns_lag_2 <= -0.28\nmse = 0.0\nsamples = 3\nvalue = -0.0", fillcolor="#e5813963"] ;
639 -> 640 ;
641 [label="mse = 0.0\nsamples = 2\nvalue = -0.0", fillcolor="#e5813960"] ;
640 -> 641 ;
642 [label="mse = 0.0\nsamples = 1\nvalue = -0.0", fillcolor="#e5813967"] ;
640 -> 642 ;
643 [label="mse = 0.0\nsamples = 4\nvalue = 0.0", fillcolor="#e5813972"] ;
639 -> 643 ;
644 [label="mse = -0.0\nsamples = 1\nvalue = 0.0", fillcolor="#e581397f"] ;
620 -> 644 ;
645 [label="BTC/USD_returns_lag_4 <= -0.17\nmse = 0.0\nsamples = 171\nvalue = -0.0", fillcolor="#e581396d"] ;
619 -> 645 ;
646 [label="BTC/USD_returns_lag_3 <= -0.25\nmse = 0.0\nsamples = 3\nvalue = -0.0", fillcolor="#e5813959"] ;
645 -> 646 ;
647 [label="mse = 0.0\nsamples = 1\nvalue = 0.0", fillcolor="#e5813970"] ;
646 -> 647 ;
648 [label="mse = 0.0\nsamples = 2\nvalue = -0.0", fillcolor="#e5813952"] ;
646 -> 648 ;
649 [label="BTC/USD_returns_lag_3 <= -0.18\nmse = 0.0\nsamples = 168\nvalue = -0.0", fillcolor="#e581396d"] ;
645 -> 649 ;
650 [label="returns_lag_2 <= -0.54\nmse = 0.0\nsamples = 48\nvalue = -0.0", fillcolor="#e581396a"] ;
649 -> 650 ;
651 [label="returns_lag_2 <= -0.54\nmse = 0.0\nsamples = 26\nvalue = -0.0", fillcolor="#e5813967"] ;
650 -> 651 ;
652 [label="BTC/USD_returns_lag_4 <= 0.09\nmse = 0.0\nsamples = 25\nvalue = -0.0", fillcolor="#e5813968"] ;
651 -> 652 ;
653 [label="returns_lag_3 <= -0.45\nmse = 0.0\nsamples = 21\nvalue = -0.0", fillcolor="#e581396a"] ;
652 -> 653 ;
654 [label="returns_lag_3 <= -0.52\nmse = 0.0\nsamples = 12\nvalue = -0.0", fillcolor="#e5813967"] ;
653 -> 654 ;
655 [label="returns_lag_3 <= -1.54\nmse = 0.0\nsamples = 11\nvalue = -0.0", fillcolor="#e5813969"] ;
654 -> 655 ;
656 [label="BTC/USD_returns_lag_4 <= -0.08\nmse = 0.0\nsamples = 4\nvalue = -0.0", fillcolor="#e5813963"] ;
655 -> 656 ;
657 [label="mse = 0.0\nsamples = 1\nvalue = 0.0", fillcolor="#e5813970"] ;
656 -> 657 ;
658 [label="mse = 0.0\nsamples = 3\nvalue = -0.0", fillcolor="#e5813962"] ;
656 -> 658 ;
659 [label="BTC/USD_returns_lag_2 <= -1.15\nmse = 0.0\nsamples = 7\nvalue = -0.0", fillcolor="#e581396c"] ;
655 -> 659 ;
660 [label="mse = 0.0\nsamples = 3\nvalue = -0.0", fillcolor="#e581396f"] ;
659 -> 660 ;
661 [label="BTC/USD_returns_lag_2 <= -1.03\nmse = 0.0\nsamples = 4\nvalue = -0.0", fillcolor="#e5813969"] ;
659 -> 661 ;
662 [label="mse = 0.0\nsamples = 1\nvalue = -0.0", fillcolor="#e581395a"] ;
661 -> 662 ;
663 [label="returns_lag_1 <= -0.09\nmse = 0.0\nsamples = 3\nvalue = -0.0", fillcolor="#e581396c"] ;
661 -> 663 ;
664 [label="mse = 0.0\nsamples = 1\nvalue = -0.0", fillcolor="#e5813965"] ;
663 -> 664 ;
665 [label="mse = 0.0\nsamples = 2\nvalue = -0.0", fillcolor="#e581396f"] ;
663 -> 665 ;
666 [label="mse = 0.0\nsamples = 1\nvalue = -0.0", fillcolor="#e5813955"] ;
654 -> 666 ;
667 [label="mse = 0.0\nsamples = 9\nvalue = -0.0", fillcolor="#e581396f"] ;
653 -> 667 ;
668 [label="returns_lag_4 <= 0.18\nmse = 0.0\nsamples = 4\nvalue = -0.0", fillcolor="#e581395f"] ;
652 -> 668 ;
669 [label="mse = 0.0\nsamples = 1\nvalue = -0.0", fillcolor="#e5813943"] ;
668 -> 669 ;
670 [label="returns_lag_2 <= -1.55\nmse = 0.0\nsamples = 3\nvalue = -0.0", fillcolor="#e5813968"] ;
668 -> 670 ;
671 [label="mse = 0.0\nsamples = 1\nvalue = -0.0", fillcolor="#e581395d"] ;
670 -> 671 ;
672 [label="mse = 0.0\nsamples = 2\nvalue = -0.0", fillcolor="#e581396e"] ;
670 -> 672 ;
673 [label="mse = 0.0\nsamples = 1\nvalue = -0.0", fillcolor="#e581394f"] ;
651 -> 673 ;
674 [label="BTC/USD_returns_lag_3 <= -1.0\nmse = 0.0\nsamples = 22\nvalue = -0.0", fillcolor="#e581396e"] ;
650 -> 674 ;
675 [label="BTC/USD_returns_lag_3 <= -1.14\nmse = 0.0\nsamples = 11\nvalue = -0.0", fillcolor="#e581396d"] ;
674 -> 675 ;
676 [label="mse = 0.0\nsamples = 8\nvalue = -0.0", fillcolor="#e581396f"] ;
675 -> 676 ;
677 [label="returns_lag_3 <= -1.12\nmse = 0.0\nsamples = 3\nvalue = -0.0", fillcolor="#e581396b"] ;
675 -> 677 ;
678 [label="mse = 0.0\nsamples = 1\nvalue = -0.0", fillcolor="#e5813965"] ;
677 -> 678 ;
679 [label="mse = 0.0\nsamples = 2\nvalue = -0.0", fillcolor="#e581396e"] ;
677 -> 679 ;
680 [label="mse = 0.0\nsamples = 11\nvalue = 0.0", fillcolor="#e5813970"] ;
674 -> 680 ;
681 [label="returns_lag_3 <= -0.18\nmse = 0.0\nsamples = 120\nvalue = -0.0", fillcolor="#e581396e"] ;
649 -> 681 ;
682 [label="mse = 0.0\nsamples = 1\nvalue = 0.0", fillcolor="#e5813984"] ;
681 -> 682 ;
683 [label="returns_lag_1 <= 0.19\nmse = 0.0\nsamples = 119\nvalue = -0.0", fillcolor="#e581396e"] ;
681 -> 683 ;
684 [label="returns_lag_4 <= 0.19\nmse = 0.0\nsamples = 118\nvalue = -0.0", fillcolor="#e581396e"] ;
683 -> 684 ;
685 [label="BTC/USD_returns_lag_2 <= -1.99\nmse = 0.0\nsamples = 116\nvalue = -0.0", fillcolor="#e581396e"] ;
684 -> 685 ;
686 [label="returns_lag_2 <= -1.99\nmse = 0.0\nsamples = 5\nvalue = -0.0", fillcolor="#e5813968"] ;
685 -> 686 ;
687 [label="mse = 0.0\nsamples = 4\nvalue = 0.0", fillcolor="#e5813970"] ;
686 -> 687 ;
688 [label="mse = 0.0\nsamples = 1\nvalue = -0.0", fillcolor="#e5813945"] ;
686 -> 688 ;
689 [label="returns_lag_2 <= -0.35\nmse = 0.0\nsamples = 111\nvalue = -0.0", fillcolor="#e581396e"] ;
685 -> 689 ;
690 [label="returns_lag_3 <= -0.17\nmse = 0.0\nsamples = 53\nvalue = 0.0", fillcolor="#e5813970"] ;
689 -> 690 ;
691 [label="returns_lag_3 <= -0.17\nmse = 0.0\nsamples = 5\nvalue = -0.0", fillcolor="#e581396b"] ;
690 -> 691 ;
692 [label="BTC/USD_returns_lag_1 <= 0.18\nmse = 0.0\nsamples = 4\nvalue = -0.0", fillcolor="#e581396e"] ;
691 -> 692 ;
693 [label="mse = 0.0\nsamples = 3\nvalue = 0.0", fillcolor="#e5813970"] ;
692 -> 693 ;
694 [label="mse = 0.0\nsamples = 1\nvalue = -0.0", fillcolor="#e5813964"] ;
692 -> 694 ;
695 [label="mse = 0.0\nsamples = 1\nvalue = -0.0", fillcolor="#e5813958"] ;
691 -> 695 ;
696 [label="mse = 0.0\nsamples = 48\nvalue = 0.0", fillcolor="#e5813970"] ;
690 -> 696 ;
697 [label="BTC/USD_returns_lag_3 <= -0.17\nmse = 0.0\nsamples = 58\nvalue = -0.0", fillcolor="#e581396d"] ;
689 -> 697 ;
698 [label="mse = 0.0\nsamples = 1\nvalue = -0.0", fillcolor="#e581395c"] ;
697 -> 698 ;
699 [label="BTC/USD_returns_lag_3 <= 0.11\nmse = 0.0\nsamples = 57\nvalue = -0.0", fillcolor="#e581396e"] ;
697 -> 699 ;
700 [label="returns_lag_2 <= -0.17\nmse = 0.0\nsamples = 30\nvalue = -0.0", fillcolor="#e581396c"] ;
699 -> 700 ;
701 [label="BTC/USD_returns_lag_2 <= -0.18\nmse = 0.0\nsamples = 26\nvalue = -0.0", fillcolor="#e581396d"] ;
700 -> 701 ;
702 [label="BTC/USD_returns_lag_2 <= -0.32\nmse = 0.0\nsamples = 11\nvalue = -0.0", fillcolor="#e581396b"] ;
701 -> 702 ;
703 [label="mse = 0.0\nsamples = 3\nvalue = -0.0", fillcolor="#e581396f"] ;
702 -> 703 ;
704 [label="BTC/USD_returns_lag_1 <= 0.19\nmse = 0.0\nsamples = 8\nvalue = -0.0", fillcolor="#e5813969"] ;
702 -> 704 ;
705 [label="BTC/USD_returns_lag_2 <= -0.18\nmse = 0.0\nsamples = 5\nvalue = -0.0", fillcolor="#e5813966"] ;
704 -> 705 ;
706 [label="returns_lag_2 <= -0.25\nmse = 0.0\nsamples = 2\nvalue = -0.0", fillcolor="#e581396a"] ;
705 -> 706 ;
707 [label="mse = 0.0\nsamples = 1\nvalue = -0.0", fillcolor="#e5813965"] ;
706 -> 707 ;
708 [label="mse = 0.0\nsamples = 1\nvalue = 0.0", fillcolor="#e5813972"] ;
706 -> 708 ;
709 [label="BTC/USD_returns_lag_2 <= -0.18\nmse = 0.0\nsamples = 3\nvalue = -0.0", fillcolor="#e5813961"] ;
705 -> 709 ;
710 [label="mse = 0.0\nsamples = 1\nvalue = -0.0", fillcolor="#e581395a"] ;
709 -> 710 ;
711 [label="BTC/USD_returns_lag_1 <= 0.09\nmse = 0.0\nsamples = 2\nvalue = -0.0", fillcolor="#e5813968"] ;
709 -> 711 ;
712 [label="mse = 0.0\nsamples = 1\nvalue = 0.0", fillcolor="#e5813970"] ;
711 -> 712 ;
713 [label="mse = 0.0\nsamples = 1\nvalue = -0.0", fillcolor="#e5813961"] ;
711 -> 713 ;
714 [label="mse = 0.0\nsamples = 3\nvalue = -0.0", fillcolor="#e581396e"] ;
704 -> 714 ;
715 [label="mse = 0.0\nsamples = 15\nvalue = -0.0", fillcolor="#e5813970"] ;
701 -> 715 ;
716 [label="BTC/USD_returns_lag_2 <= -0.17\nmse = 0.0\nsamples = 4\nvalue = -0.0", fillcolor="#e5813968"] ;
700 -> 716 ;
717 [label="mse = 0.0\nsamples = 1\nvalue = -0.0", fillcolor="#e5813960"] ;
716 -> 717 ;
718 [label="BTC/USD_returns_lag_1 <= 0.18\nmse = 0.0\nsamples = 3\nvalue = -0.0", fillcolor="#e581396b"] ;
716 -> 718 ;
719 [label="mse = 0.0\nsamples = 2\nvalue = 0.0", fillcolor="#e5813970"] ;
718 -> 719 ;
720 [label="mse = 0.0\nsamples = 1\nvalue = -0.0", fillcolor="#e5813968"] ;
718 -> 720 ;
721 [label="BTC/USD_returns_lag_1 <= 0.19\nmse = 0.0\nsamples = 27\nvalue = -0.0", fillcolor="#e581396f"] ;
699 -> 721 ;
722 [label="mse = 0.0\nsamples = 21\nvalue = 0.0", fillcolor="#e5813970"] ;
721 -> 722 ;
723 [label="BTC/USD_returns_lag_1 <= 0.19\nmse = 0.0\nsamples = 6\nvalue = -0.0", fillcolor="#e581396d"] ;
721 -> 723 ;
724 [label="mse = 0.0\nsamples = 1\nvalue = -0.0", fillcolor="#e5813961"] ;
723 -> 724 ;
725 [label="BTC/USD_returns_lag_1 <= 0.19\nmse = 0.0\nsamples = 5\nvalue = -0.0", fillcolor="#e581396f"] ;
723 -> 725 ;
726 [label="mse = 0.0\nsamples = 2\nvalue = -0.0", fillcolor="#e581396e"] ;
725 -> 726 ;
727 [label="BTC/USD_returns_lag_1 <= 0.19\nmse = 0.0\nsamples = 3\nvalue = 0.0", fillcolor="#e5813970"] ;
725 -> 727 ;
728 [label="BTC/USD_returns_lag_1 <= 0.19\nmse = 0.0\nsamples = 2\nvalue = 0.0", fillcolor="#e5813975"] ;
727 -> 728 ;
729 [label="mse = 0.0\nsamples = 1\nvalue = 0.0", fillcolor="#e5813970"] ;
728 -> 729 ;
730 [label="mse = 0.0\nsamples = 1\nvalue = 0.0", fillcolor="#e581397a"] ;
728 -> 730 ;
731 [label="mse = -0.0\nsamples = 1\nvalue = -0.0", fillcolor="#e581396e"] ;
727 -> 731 ;
732 [label="returns_lag_2 <= -0.45\nmse = 0.0\nsamples = 2\nvalue = -0.0", fillcolor="#e5813964"] ;
684 -> 732 ;
733 [label="mse = 0.0\nsamples = 1\nvalue = -0.0", fillcolor="#e581394d"] ;
732 -> 733 ;
734 [label="mse = 0.0\nsamples = 1\nvalue = 0.0", fillcolor="#e5813970"] ;
732 -> 734 ;
735 [label="mse = 0.0\nsamples = 1\nvalue = -0.0", fillcolor="#e581395f"] ;
683 -> 735 ;
736 [label="returns_lag_2 <= -0.18\nmse = 0.0\nsamples = 49\nvalue = 0.0", fillcolor="#e5813971"] ;
618 -> 736 ;
737 [label="BTC/USD_returns_lag_2 <= -0.18\nmse = 0.0\nsamples = 30\nvalue = 0.0", fillcolor="#e5813973"] ;
736 -> 737 ;
738 [label="returns_lag_3 <= 1.04\nmse = 0.0\nsamples = 29\nvalue = 0.0", fillcolor="#e5813972"] ;
737 -> 738 ;
739 [label="returns_lag_4 <= 3.26\nmse = 0.0\nsamples = 26\nvalue = 0.0", fillcolor="#e5813972"] ;
738 -> 739 ;
740 [label="returns_lag_2 <= -0.85\nmse = 0.0\nsamples = 25\nvalue = 0.0", fillcolor="#e5813972"] ;
739 -> 740 ;
741 [label="BTC/USD_returns_lag_4 <= 1.54\nmse = 0.0\nsamples = 14\nvalue = 0.0", fillcolor="#e5813970"] ;
740 -> 741 ;
742 [label="returns_lag_4 <= 1.25\nmse = 0.0\nsamples = 9\nvalue = -0.0", fillcolor="#e581396e"] ;
741 -> 742 ;
743 [label="mse = 0.0\nsamples = 8\nvalue = -0.0", fillcolor="#e581396f"] ;
742 -> 743 ;
744 [label="mse = 0.0\nsamples = 1\nvalue = -0.0", fillcolor="#e581395f"] ;
742 -> 744 ;
745 [label="BTC/USD_returns_lag_1 <= 0.18\nmse = 0.0\nsamples = 5\nvalue = 0.0", fillcolor="#e5813974"] ;
741 -> 745 ;
746 [label="mse = 0.0\nsamples = 4\nvalue = 0.0", fillcolor="#e5813975"] ;
745 -> 746 ;
747 [label="mse = -0.0\nsamples = 1\nvalue = -0.0", fillcolor="#e581396e"] ;
745 -> 747 ;
748 [label="BTC/USD_returns_lag_2 <= -0.78\nmse = 0.0\nsamples = 11\nvalue = 0.0", fillcolor="#e5813975"] ;
740 -> 748 ;
749 [label="mse = 0.0\nsamples = 1\nvalue = 0.0", fillcolor="#e5813980"] ;
748 -> 749 ;
750 [label="BTC/USD_returns_lag_1 <= 0.19\nmse = 0.0\nsamples = 10\nvalue = 0.0", fillcolor="#e5813972"] ;
748 -> 750 ;
751 [label="mse = 0.0\nsamples = 9\nvalue = 0.0", fillcolor="#e5813971"] ;
750 -> 751 ;
752 [label="mse = -0.0\nsamples = 1\nvalue = 0.0", fillcolor="#e581397c"] ;
750 -> 752 ;
753 [label="mse = 0.0\nsamples = 1\nvalue = -0.0", fillcolor="#e5813966"] ;
739 -> 753 ;
754 [label="mse = 0.0\nsamples = 3\nvalue = 0.0", fillcolor="#e5813980"] ;
738 -> 754 ;
755 [label="mse = 0.0\nsamples = 1\nvalue = 0.0", fillcolor="#e5813985"] ;
737 -> 755 ;
756 [label="BTC/USD_returns_lag_4 <= 0.75\nmse = 0.0\nsamples = 19\nvalue = -0.0", fillcolor="#e581396d"] ;
736 -> 756 ;
757 [label="mse = 0.0\nsamples = 9\nvalue = -0.0", fillcolor="#e581396f"] ;
756 -> 757 ;
758 [label="returns_lag_4 <= 1.13\nmse = 0.0\nsamples = 10\nvalue = -0.0", fillcolor="#e581396a"] ;
756 -> 758 ;
759 [label="BTC/USD_returns_lag_2 <= -0.17\nmse = 0.0\nsamples = 3\nvalue = -0.0", fillcolor="#e581395f"] ;
758 -> 759 ;
760 [label="mse = 0.0\nsamples = 1\nvalue = -0.0", fillcolor="#e581396e"] ;
759 -> 760 ;
761 [label="mse = 0.0\nsamples = 2\nvalue = -0.0", fillcolor="#e581395a"] ;
759 -> 761 ;
762 [label="mse = 0.0\nsamples = 7\nvalue = -0.0", fillcolor="#e581396f"] ;
758 -> 762 ;
763 [label="returns_lag_3 <= -1.0\nmse = 0.0\nsamples = 13\nvalue = -0.0", fillcolor="#e5813967"] ;
617 -> 763 ;
764 [label="mse = 0.0\nsamples = 1\nvalue = -0.0", fillcolor="#e5813950"] ;
763 -> 764 ;
765 [label="BTC/USD_returns_lag_3 <= 0.38\nmse = 0.0\nsamples = 12\nvalue = -0.0", fillcolor="#e581396a"] ;
763 -> 765 ;
766 [label="BTC/USD_returns_lag_2 <= -0.17\nmse = 0.0\nsamples = 10\nvalue = -0.0", fillcolor="#e581396e"] ;
765 -> 766 ;
767 [label="mse = 0.0\nsamples = 4\nvalue = 0.0", fillcolor="#e5813973"] ;
766 -> 767 ;
768 [label="BTC/USD_returns_lag_1 <= 0.09\nmse = 0.0\nsamples = 6\nvalue = -0.0", fillcolor="#e581396b"] ;
766 -> 768 ;
769 [label="mse = 0.0\nsamples = 2\nvalue = -0.0", fillcolor="#e5813966"] ;
768 -> 769 ;
770 [label="mse = 0.0\nsamples = 4\nvalue = -0.0", fillcolor="#e581396e"] ;
768 -> 770 ;
771 [label="mse = 0.0\nsamples = 2\nvalue = -0.0", fillcolor="#e581395f"] ;
765 -> 771 ;
772 [label="returns_lag_1 <= 0.16\nmse = 0.0\nsamples = 820\nvalue = 0.0", fillcolor="#e5813970"] ;
598 -> 772 ;
773 [label="returns_lag_2 <= -0.17\nmse = 0.0\nsamples = 628\nvalue = -0.0", fillcolor="#e581396f"] ;
772 -> 773 ;
774 [label="mse = 0.0\nsamples = 1\nvalue = 0.0", fillcolor="#e5813997"] ;
773 -> 774 ;
775 [label="returns_lag_3 <= -0.17\nmse = 0.0\nsamples = 627\nvalue = -0.0", fillcolor="#e581396f"] ;
773 -> 775 ;
776 [label="BTC/USD_returns_lag_3 <= -0.18\nmse = 0.0\nsamples = 108\nvalue = -0.0", fillcolor="#e581396d"] ;
775 -> 776 ;
777 [label="BTC/USD_returns_lag_4 <= 0.2\nmse = 0.0\nsamples = 97\nvalue = -0.0", fillcolor="#e581396e"] ;
776 -> 777 ;
778 [label="BTC/USD_returns_lag_3 <= -0.33\nmse = 0.0\nsamples = 89\nvalue = -0.0", fillcolor="#e581396e"] ;
777 -> 778 ;
779 [label="BTC/USD_returns_lag_2 <= -0.16\nmse = 0.0\nsamples = 67\nvalue = -0.0", fillcolor="#e581396d"] ;
778 -> 779 ;
780 [label="mse = 0.0\nsamples = 1\nvalue = -0.0", fillcolor="#e581395c"] ;
779 -> 780 ;
781 [label="BTC/USD_returns_lag_3 <= -2.96\nmse = 0.0\nsamples = 66\nvalue = -0.0", fillcolor="#e581396d"] ;
779 -> 781 ;
782 [label="BTC/USD_returns_lag_4 <= -0.28\nmse = 0.0\nsamples = 3\nvalue = -0.0", fillcolor="#e5813968"] ;
781 -> 782 ;
783 [label="returns_lag_3 <= -3.62\nmse = 0.0\nsamples = 2\nvalue = -0.0", fillcolor="#e581396f"] ;
782 -> 783 ;
784 [label="mse = 0.0\nsamples = 1\nvalue = -0.0", fillcolor="#e581396a"] ;
783 -> 784 ;
785 [label="mse = -0.0\nsamples = 1\nvalue = 0.0", fillcolor="#e5813974"] ;
783 -> 785 ;
786 [label="mse = 0.0\nsamples = 1\nvalue = -0.0", fillcolor="#e5813961"] ;
782 -> 786 ;
787 [label="returns_lag_3 <= -0.33\nmse = 0.0\nsamples = 63\nvalue = -0.0", fillcolor="#e581396e"] ;
781 -> 787 ;
788 [label="returns_lag_3 <= -0.51\nmse = 0.0\nsamples = 62\nvalue = -0.0", fillcolor="#e581396e"] ;
787 -> 788 ;
789 [label="returns_lag_3 <= -0.75\nmse = 0.0\nsamples = 54\nvalue = -0.0", fillcolor="#e581396d"] ;
788 -> 789 ;
790 [label="returns_lag_4 <= -1.07\nmse = 0.0\nsamples = 45\nvalue = -0.0", fillcolor="#e581396e"] ;
789 -> 790 ;
791 [label="returns_lag_4 <= -1.28\nmse = 0.0\nsamples = 5\nvalue = -0.0", fillcolor="#e5813969"] ;
790 -> 791 ;
792 [label="mse = 0.0\nsamples = 4\nvalue = -0.0", fillcolor="#e581396e"] ;
791 -> 792 ;
793 [label="mse = 0.0\nsamples = 1\nvalue = -0.0", fillcolor="#e581395c"] ;
791 -> 793 ;
794 [label="BTC/USD_returns_lag_3 <= -1.03\nmse = 0.0\nsamples = 40\nvalue = -0.0", fillcolor="#e581396f"] ;
790 -> 794 ;
795 [label="mse = 0.0\nsamples = 28\nvalue = -0.0", fillcolor="#e581396f"] ;
794 -> 795 ;
796 [label="BTC/USD_returns_lag_3 <= -1.02\nmse = 0.0\nsamples = 12\nvalue = -0.0", fillcolor="#e581396d"] ;
794 -> 796 ;
797 [label="mse = 0.0\nsamples = 1\nvalue = -0.0", fillcolor="#e5813954"] ;
796 -> 797 ;
798 [label="mse = 0.0\nsamples = 11\nvalue = -0.0", fillcolor="#e581396f"] ;
796 -> 798 ;
799 [label="BTC/USD_returns_lag_3 <= -0.75\nmse = 0.0\nsamples = 9\nvalue = -0.0", fillcolor="#e5813969"] ;
789 -> 799 ;
800 [label="mse = 0.0\nsamples = 1\nvalue = -0.0", fillcolor="#e581395b"] ;
799 -> 800 ;
801 [label="returns_lag_3 <= -0.63\nmse = 0.0\nsamples = 8\nvalue = -0.0", fillcolor="#e581396c"] ;
799 -> 801 ;
802 [label="mse = 0.0\nsamples = 4\nvalue = 0.0", fillcolor="#e5813970"] ;
801 -> 802 ;
803 [label="BTC/USD_returns_lag_4 <= -0.64\nmse = 0.0\nsamples = 4\nvalue = -0.0", fillcolor="#e5813968"] ;
801 -> 803 ;
804 [label="mse = 0.0\nsamples = 2\nvalue = -0.0", fillcolor="#e581396f"] ;
803 -> 804 ;
805 [label="mse = 0.0\nsamples = 2\nvalue = -0.0", fillcolor="#e581395a"] ;
803 -> 805 ;
806 [label="mse = 0.0\nsamples = 8\nvalue = 0.0", fillcolor="#e5813970"] ;
788 -> 806 ;
807 [label="mse = 0.0\nsamples = 1\nvalue = -0.0", fillcolor="#e5813966"] ;
787 -> 807 ;
808 [label="mse = 0.0\nsamples = 22\nvalue = 0.0", fillcolor="#e5813971"] ;
778 -> 808 ;
809 [label="returns_lag_3 <= -0.52\nmse = 0.0\nsamples = 8\nvalue = -0.0", fillcolor="#e5813969"] ;
777 -> 809 ;
810 [label="mse = 0.0\nsamples = 5\nvalue = -0.0", fillcolor="#e581396d"] ;
809 -> 810 ;
811 [label="BTC/USD_returns_lag_4 <= 1.8\nmse = 0.0\nsamples = 3\nvalue = -0.0", fillcolor="#e5813961"] ;
809 -> 811 ;
812 [label="mse = 0.0\nsamples = 2\nvalue = -0.0", fillcolor="#e581395c"] ;
811 -> 812 ;
813 [label="mse = 0.0\nsamples = 1\nvalue = 0.0", fillcolor="#e5813970"] ;
811 -> 813 ;
814 [label="BTC/USD_returns_lag_4 <= 0.19\nmse = 0.0\nsamples = 11\nvalue = -0.0", fillcolor="#e5813966"] ;
776 -> 814 ;
815 [label="BTC/USD_returns_lag_3 <= -0.17\nmse = 0.0\nsamples = 6\nvalue = -0.0", fillcolor="#e581396c"] ;
814 -> 815 ;
816 [label="mse = 0.0\nsamples = 5\nvalue = -0.0", fillcolor="#e581396e"] ;
815 -> 816 ;
817 [label="mse = 0.0\nsamples = 1\nvalue = -0.0", fillcolor="#e5813966"] ;
815 -> 817 ;
818 [label="mse = 0.0\nsamples = 5\nvalue = -0.0", fillcolor="#e5813961"] ;
814 -> 818 ;
819 [label="BTC/USD_returns_lag_4 <= 0.27\nmse = 0.0\nsamples = 519\nvalue = -0.0", fillcolor="#e5813970"] ;
775 -> 819 ;
820 [label="returns_lag_3 <= 0.21\nmse = 0.0\nsamples = 439\nvalue = -0.0", fillcolor="#e581396f"] ;
819 -> 820 ;
821 [label="returns_lag_3 <= 0.19\nmse = 0.0\nsamples = 381\nvalue = -0.0", fillcolor="#e581396f"] ;
820 -> 821 ;
822 [label="BTC/USD_returns_lag_3 <= 0.18\nmse = 0.0\nsamples = 334\nvalue = -0.0", fillcolor="#e581396f"] ;
821 -> 822 ;
823 [label="returns_lag_1 <= 0.16\nmse = 0.0\nsamples = 326\nvalue = -0.0", fillcolor="#e581396f"] ;
822 -> 823 ;
824 [label="BTC/USD_returns_lag_4 <= -2.48\nmse = 0.0\nsamples = 322\nvalue = -0.0", fillcolor="#e581396f"] ;
823 -> 824 ;
825 [label="returns_lag_4 <= -3.02\nmse = 0.0\nsamples = 4\nvalue = -0.0", fillcolor="#e5813969"] ;
824 -> 825 ;
826 [label="mse = 0.0\nsamples = 1\nvalue = 0.0", fillcolor="#e5813970"] ;
825 -> 826 ;
827 [label="returns_lag_4 <= -2.85\nmse = 0.0\nsamples = 3\nvalue = -0.0", fillcolor="#e5813968"] ;
825 -> 827 ;
828 [label="mse = 0.0\nsamples = 1\nvalue = -0.0", fillcolor="#e5813963"] ;
827 -> 828 ;
829 [label="mse = 0.0\nsamples = 2\nvalue = -0.0", fillcolor="#e581396b"] ;
827 -> 829 ;
830 [label="BTC/USD_returns_lag_4 <= -2.18\nmse = 0.0\nsamples = 318\nvalue = -0.0", fillcolor="#e581396f"] ;
824 -> 830 ;
831 [label="mse = 0.0\nsamples = 1\nvalue = 0.0", fillcolor="#e5813995"] ;
830 -> 831 ;
832 [label="returns_lag_4 <= -0.08\nmse = 0.0\nsamples = 317\nvalue = -0.0", fillcolor="#e581396f"] ;
830 -> 832 ;
833 [label="BTC/USD_returns_lag_4 <= -0.51\nmse = 0.0\nsamples = 86\nvalue = 0.0", fillcolor="#e5813970"] ;
832 -> 833 ;
834 [label="BTC/USD_returns_lag_4 <= -1.16\nmse = 0.0\nsamples = 31\nvalue = -0.0", fillcolor="#e581396e"] ;
833 -> 834 ;
835 [label="returns_lag_1 <= -0.17\nmse = 0.0\nsamples = 18\nvalue = 0.0", fillcolor="#e5813970"] ;
834 -> 835 ;
836 [label="mse = 0.0\nsamples = 1\nvalue = 0.0", fillcolor="#e581397e"] ;
835 -> 836 ;
837 [label="mse = 0.0\nsamples = 17\nvalue = 0.0", fillcolor="#e5813970"] ;
835 -> 837 ;
838 [label="BTC/USD_returns_lag_4 <= -1.09\nmse = 0.0\nsamples = 13\nvalue = -0.0", fillcolor="#e581396a"] ;
834 -> 838 ;
839 [label="mse = 0.0\nsamples = 1\nvalue = -0.0", fillcolor="#e581395f"] ;
838 -> 839 ;
840 [label="BTC/USD_returns_lag_4 <= -0.75\nmse = 0.0\nsamples = 12\nvalue = -0.0", fillcolor="#e581396b"] ;
838 -> 840 ;
841 [label="mse = 0.0\nsamples = 6\nvalue = -0.0", fillcolor="#e581396f"] ;
840 -> 841 ;
842 [label="returns_lag_4 <= -0.7\nmse = 0.0\nsamples = 6\nvalue = -0.0", fillcolor="#e5813968"] ;
840 -> 842 ;
843 [label="returns_lag_4 <= -0.72\nmse = 0.0\nsamples = 2\nvalue = -0.0", fillcolor="#e5813959"] ;
842 -> 843 ;
844 [label="mse = 0.0\nsamples = 1\nvalue = -0.0", fillcolor="#e5813964"] ;
843 -> 844 ;
845 [label="mse = 0.0\nsamples = 1\nvalue = -0.0", fillcolor="#e581394e"] ;
843 -> 845 ;
846 [label="BTC/USD_returns_lag_2 <= 0.1\nmse = 0.0\nsamples = 4\nvalue = -0.0", fillcolor="#e581396d"] ;
842 -> 846 ;
847 [label="mse = 0.0\nsamples = 3\nvalue = -0.0", fillcolor="#e581396f"] ;
846 -> 847 ;
848 [label="mse = 0.0\nsamples = 1\nvalue = -0.0", fillcolor="#e5813966"] ;
846 -> 848 ;
849 [label="returns_lag_2 <= 0.18\nmse = 0.0\nsamples = 55\nvalue = 0.0", fillcolor="#e5813971"] ;
833 -> 849 ;
850 [label="returns_lag_4 <= -0.36\nmse = 0.0\nsamples = 52\nvalue = 0.0", fillcolor="#e5813971"] ;
849 -> 850 ;
851 [label="BTC/USD_returns_lag_4 <= -0.37\nmse = 0.0\nsamples = 5\nvalue = 0.0", fillcolor="#e5813975"] ;
850 -> 851 ;
852 [label="mse = 0.0\nsamples = 4\nvalue = 0.0", fillcolor="#e5813971"] ;
851 -> 852 ;
853 [label="mse = 0.0\nsamples = 1\nvalue = 0.0", fillcolor="#e5813984"] ;
851 -> 853 ;
854 [label="BTC/USD_returns_lag_4 <= -0.16\nmse = 0.0\nsamples = 47\nvalue = 0.0", fillcolor="#e5813971"] ;
850 -> 854 ;
855 [label="BTC/USD_returns_lag_4 <= -0.17\nmse = 0.0\nsamples = 41\nvalue = 0.0", fillcolor="#e5813971"] ;
854 -> 855 ;
856 [label="returns_lag_4 <= -0.17\nmse = 0.0\nsamples = 22\nvalue = 0.0", fillcolor="#e5813972"] ;
855 -> 856 ;
857 [label="BTC/USD_returns_lag_4 <= -0.18\nmse = 0.0\nsamples = 20\nvalue = 0.0", fillcolor="#e5813971"] ;
856 -> 857 ;
858 [label="returns_lag_4 <= -0.18\nmse = 0.0\nsamples = 15\nvalue = 0.0", fillcolor="#e5813970"] ;
857 -> 858 ;
859 [label="mse = 0.0\nsamples = 14\nvalue = 0.0", fillcolor="#e5813970"] ;
858 -> 859 ;
860 [label="mse = -0.0\nsamples = 1\nvalue = -0.0", fillcolor="#e5813966"] ;
858 -> 860 ;
861 [label="returns_lag_4 <= -0.18\nmse = 0.0\nsamples = 5\nvalue = 0.0", fillcolor="#e5813973"] ;
857 -> 861 ;
862 [label="mse = 0.0\nsamples = 1\nvalue = 0.0", fillcolor="#e581398c"] ;
861 -> 862 ;
863 [label="mse = 0.0\nsamples = 4\nvalue = -0.0", fillcolor="#e581396f"] ;
861 -> 863 ;
864 [label="BTC/USD_returns_lag_4 <= -0.17\nmse = 0.0\nsamples = 2\nvalue = 0.0", fillcolor="#e5813982"] ;
856 -> 864 ;
865 [label="mse = 0.0\nsamples = 1\nvalue = 0.0", fillcolor="#e5813989"] ;
864 -> 865 ;
866 [label="mse = 0.0\nsamples = 1\nvalue = 0.0", fillcolor="#e581397b"] ;
864 -> 866 ;
867 [label="mse = 0.0\nsamples = 19\nvalue = -0.0", fillcolor="#e5813970"] ;
855 -> 867 ;
868 [label="BTC/USD_returns_lag_3 <= 0.18\nmse = 0.0\nsamples = 6\nvalue = 0.0", fillcolor="#e5813974"] ;
854 -> 868 ;
869 [label="mse = 0.0\nsamples = 5\nvalue = 0.0", fillcolor="#e5813971"] ;
868 -> 869 ;
870 [label="mse = 0.0\nsamples = 1\nvalue = 0.0", fillcolor="#e5813989"] ;
868 -> 870 ;
871 [label="returns_lag_2 <= 0.18\nmse = 0.0\nsamples = 3\nvalue = -0.0", fillcolor="#e5813969"] ;
849 -> 871 ;
872 [label="mse = 0.0\nsamples = 1\nvalue = -0.0", fillcolor="#e581395d"] ;
871 -> 872 ;
873 [label="mse = 0.0\nsamples = 2\nvalue = -0.0", fillcolor="#e581396f"] ;
871 -> 873 ;
874 [label="returns_lag_4 <= 0.18\nmse = 0.0\nsamples = 231\nvalue = -0.0", fillcolor="#e581396f"] ;
832 -> 874 ;
875 [label="returns_lag_4 <= 0.18\nmse = 0.0\nsamples = 188\nvalue = -0.0", fillcolor="#e581396e"] ;
874 -> 875 ;
876 [label="BTC/USD_returns_lag_2 <= -0.15\nmse = 0.0\nsamples = 186\nvalue = -0.0", fillcolor="#e581396e"] ;
875 -> 876 ;
877 [label="mse = 0.0\nsamples = 15\nvalue = 0.0", fillcolor="#e5813971"] ;
876 -> 877 ;
878 [label="returns_lag_2 <= -0.15\nmse = 0.0\nsamples = 171\nvalue = -0.0", fillcolor="#e581396e"] ;
876 -> 878 ;
879 [label="mse = 0.0\nsamples = 1\nvalue = -0.0", fillcolor="#e5813963"] ;
878 -> 879 ;
880 [label="returns_lag_3 <= -0.16\nmse = 0.0\nsamples = 170\nvalue = -0.0", fillcolor="#e581396e"] ;
878 -> 880 ;
881 [label="mse = 0.0\nsamples = 8\nvalue = 0.0", fillcolor="#e5813971"] ;
880 -> 881 ;
882 [label="returns_lag_3 <= -0.16\nmse = 0.0\nsamples = 162\nvalue = -0.0", fillcolor="#e581396e"] ;
880 -> 882 ;
883 [label="mse = 0.0\nsamples = 1\nvalue = -0.0", fillcolor="#e5813956"] ;
882 -> 883 ;
884 [label="returns_lag_3 <= -0.16\nmse = 0.0\nsamples = 161\nvalue = -0.0", fillcolor="#e581396e"] ;
882 -> 884 ;
885 [label="BTC/USD_returns_lag_2 <= 0.1\nmse = 0.0\nsamples = 6\nvalue = -0.0", fillcolor="#e581396c"] ;
884 -> 885 ;
886 [label="mse = 0.0\nsamples = 2\nvalue = -0.0", fillcolor="#e5813965"] ;
885 -> 886 ;
887 [label="mse = 0.0\nsamples = 4\nvalue = -0.0", fillcolor="#e581396f"] ;
885 -> 887 ;
888 [label="BTC/USD_returns_lag_3 <= -0.16\nmse = 0.0\nsamples = 155\nvalue = -0.0", fillcolor="#e581396e"] ;
884 -> 888 ;
889 [label="BTC/USD_returns_lag_1 <= 0.08\nmse = 0.0\nsamples = 2\nvalue = 0.0", fillcolor="#e5813978"] ;
888 -> 889 ;
890 [label="mse = 0.0\nsamples = 1\nvalue = 0.0", fillcolor="#e5813980"] ;
889 -> 890 ;
891 [label="mse = 0.0\nsamples = 1\nvalue = 0.0", fillcolor="#e5813970"] ;
889 -> 891 ;
892 [label="returns_lag_3 <= -0.16\nmse = 0.0\nsamples = 153\nvalue = -0.0", fillcolor="#e581396e"] ;
888 -> 892 ;
893 [label="BTC/USD_returns_lag_2 <= 0.1\nmse = 0.0\nsamples = 3\nvalue = -0.0", fillcolor="#e5813969"] ;
892 -> 893 ;
894 [label="mse = 0.0\nsamples = 2\nvalue = -0.0", fillcolor="#e5813966"] ;
893 -> 894 ;
895 [label="mse = 0.0\nsamples = 1\nvalue = 0.0", fillcolor="#e5813970"] ;
893 -> 895 ;
896 [label="BTC/USD_returns_lag_1 <= -0.17\nmse = 0.0\nsamples = 150\nvalue = -0.0", fillcolor="#e581396e"] ;
892 -> 896 ;
897 [label="mse = 0.0\nsamples = 2\nvalue = 0.0", fillcolor="#e5813972"] ;
896 -> 897 ;
898 [label="returns_lag_1 <= -0.17\nmse = 0.0\nsamples = 148\nvalue = -0.0", fillcolor="#e581396e"] ;
896 -> 898 ;
899 [label="returns_lag_1 <= -0.17\nmse = 0.0\nsamples = 4\nvalue = -0.0", fillcolor="#e581396b"] ;
898 -> 899 ;
900 [label="mse = 0.0\nsamples = 3\nvalue = -0.0", fillcolor="#e581396f"] ;
899 -> 900 ;
901 [label="mse = 0.0\nsamples = 1\nvalue = -0.0", fillcolor="#e5813959"] ;
899 -> 901 ;
902 [label="BTC/USD_returns_lag_1 <= -0.17\nmse = 0.0\nsamples = 144\nvalue = -0.0", fillcolor="#e581396e"] ;
898 -> 902 ;
903 [label="mse = 0.0\nsamples = 6\nvalue = 0.0", fillcolor="#e5813970"] ;
902 -> 903 ;
904 [label="returns_lag_2 <= 0.18\nmse = 0.0\nsamples = 138\nvalue = -0.0", fillcolor="#e581396e"] ;
902 -> 904 ;
905 [label="returns_lag_4 <= 0.17\nmse = 0.0\nsamples = 133\nvalue = -0.0", fillcolor="#e581396e"] ;
904 -> 905 ;
906 [label="BTC/USD_returns_lag_4 <= 0.17\nmse = 0.0\nsamples = 129\nvalue = -0.0", fillcolor="#e581396e"] ;
905 -> 906 ;
907 [label="BTC/USD_returns_lag_3 <= 0.18\nmse = 0.0\nsamples = 128\nvalue = -0.0", fillcolor="#e581396e"] ;
906 -> 907 ;
908 [label="BTC/USD_returns_lag_4 <= 0.09\nmse = 0.0\nsamples = 127\nvalue = -0.0", fillcolor="#e581396e"] ;
907 -> 908 ;
909 [label="BTC/USD_returns_lag_3 <= 0.18\nmse = 0.0\nsamples = 126\nvalue = -0.0", fillcolor="#e581396e"] ;
908 -> 909 ;
910 [label="returns_lag_3 <= 0.18\nmse = 0.0\nsamples = 125\nvalue = -0.0", fillcolor="#e581396e"] ;
909 -> 910 ;
911 [label="returns_lag_2 <= 0.18\nmse = 0.0\nsamples = 124\nvalue = -0.0", fillcolor="#e581396e"] ;
910 -> 911 ;
912 [label="returns_lag_2 <= 0.1\nmse = 0.0\nsamples = 122\nvalue = -0.0", fillcolor="#e581396e"] ;
911 -> 912 ;
913 [label="returns_lag_1 <= -0.09\nmse = 0.0\nsamples = 121\nvalue = -0.0", fillcolor="#e581396e"] ;
912 -> 913 ;
914 [label="mse = 0.0\nsamples = 1\nvalue = -0.0", fillcolor="#e581396e"] ;
913 -> 914 ;
915 [label="BTC/USD_returns_lag_3 <= 0.1\nmse = 0.0\nsamples = 120\nvalue = -0.0", fillcolor="#e581396e"] ;
913 -> 915 ;
916 [label="BTC/USD_returns_lag_1 <= 0.08\nmse = 0.0\nsamples = 119\nvalue = -0.0", fillcolor="#e581396e"] ;
915 -> 916 ;
917 [label="returns_lag_3 <= -0.07\nmse = 0.0\nsamples = 117\nvalue = -0.0", fillcolor="#e581396e"] ;
916 -> 917 ;
918 [label="mse = 0.0\nsamples = 1\nvalue = -0.0", fillcolor="#e581396e"] ;
917 -> 918 ;
919 [label="mse = 0.0\nsamples = 116\nvalue = -0.0", fillcolor="#e581396e"] ;
917 -> 919 ;
920 [label="mse = 0.0\nsamples = 2\nvalue = -0.0", fillcolor="#e581396e"] ;
916 -> 920 ;
921 [label="mse = 0.0\nsamples = 1\nvalue = -0.0", fillcolor="#e581396e"] ;
915 -> 921 ;
922 [label="mse = 0.0\nsamples = 1\nvalue = 0.0", fillcolor="#e5813970"] ;
912 -> 922 ;
923 [label="mse = 0.0\nsamples = 2\nvalue = -0.0", fillcolor="#e581396e"] ;
911 -> 923 ;
924 [label="mse = 0.0\nsamples = 1\nvalue = 0.0", fillcolor="#e5813970"] ;
910 -> 924 ;
925 [label="mse = -0.0\nsamples = 1\nvalue = -0.0", fillcolor="#e581396e"] ;
909 -> 925 ;
926 [label="mse = 0.0\nsamples = 1\nvalue = 0.0", fillcolor="#e5813970"] ;
908 -> 926 ;
927 [label="mse = 0.0\nsamples = 1\nvalue = 0.0", fillcolor="#e5813970"] ;
907 -> 927 ;
928 [label="mse = -0.0\nsamples = 1\nvalue = -0.0", fillcolor="#e581396c"] ;
906 -> 928 ;
929 [label="mse = -0.0\nsamples = 4\nvalue = 0.0", fillcolor="#e5813970"] ;
905 -> 929 ;
930 [label="mse = 0.0\nsamples = 5\nvalue = -0.0", fillcolor="#e581396d"] ;
904 -> 930 ;
931 [label="returns_lag_2 <= 0.01\nmse = 0.0\nsamples = 2\nvalue = -0.0", fillcolor="#e5813967"] ;
875 -> 931 ;
932 [label="mse = 0.0\nsamples = 1\nvalue = -0.0", fillcolor="#e581395d"] ;
931 -> 932 ;
933 [label="mse = -0.0\nsamples = 1\nvalue = 0.0", fillcolor="#e5813971"] ;
931 -> 933 ;
934 [label="returns_lag_4 <= 0.19\nmse = 0.0\nsamples = 43\nvalue = 0.0", fillcolor="#e5813970"] ;
874 -> 934 ;
935 [label="BTC/USD_returns_lag_4 <= 0.19\nmse = 0.0\nsamples = 36\nvalue = 0.0", fillcolor="#e5813971"] ;
934 -> 935 ;
936 [label="mse = 0.0\nsamples = 31\nvalue = 0.0", fillcolor="#e5813970"] ;
935 -> 936 ;
937 [label="BTC/USD_returns_lag_4 <= 0.19\nmse = 0.0\nsamples = 5\nvalue = 0.0", fillcolor="#e5813976"] ;
935 -> 937 ;
938 [label="mse = 0.0\nsamples = 3\nvalue = 0.0", fillcolor="#e5813975"] ;
937 -> 938 ;
939 [label="mse = 0.0\nsamples = 2\nvalue = 0.0", fillcolor="#e5813979"] ;
937 -> 939 ;
940 [label="BTC/USD_returns_lag_4 <= 0.2\nmse = 0.0\nsamples = 7\nvalue = -0.0", fillcolor="#e581396d"] ;
934 -> 940 ;
941 [label="mse = 0.0\nsamples = 1\nvalue = -0.0", fillcolor="#e5813963"] ;
940 -> 941 ;
942 [label="mse = 0.0\nsamples = 6\nvalue = -0.0", fillcolor="#e581396f"] ;
940 -> 942 ;
943 [label="BTC/USD_returns_lag_3 <= -0.07\nmse = 0.0\nsamples = 4\nvalue = -0.0", fillcolor="#e5813968"] ;
823 -> 943 ;
944 [label="mse = 0.0\nsamples = 1\nvalue = -0.0", fillcolor="#e581395a"] ;
943 -> 944 ;
945 [label="mse = 0.0\nsamples = 3\nvalue = 0.0", fillcolor="#e5813971"] ;
943 -> 945 ;
946 [label="returns_lag_3 <= 0.18\nmse = 0.0\nsamples = 8\nvalue = 0.0", fillcolor="#e5813976"] ;
822 -> 946 ;
947 [label="returns_lag_2 <= -0.07\nmse = 0.0\nsamples = 3\nvalue = 0.0", fillcolor="#e5813980"] ;
946 -> 947 ;
948 [label="mse = 0.0\nsamples = 1\nvalue = 0.0", fillcolor="#e5813971"] ;
947 -> 948 ;
949 [label="mse = 0.0\nsamples = 2\nvalue = 0.0", fillcolor="#e5813983"] ;
947 -> 949 ;
950 [label="returns_lag_2 <= -0.07\nmse = 0.0\nsamples = 5\nvalue = 0.0", fillcolor="#e5813971"] ;
946 -> 950 ;
951 [label="mse = 0.0\nsamples = 1\nvalue = 0.0", fillcolor="#e581397d"] ;
950 -> 951 ;
952 [label="mse = 0.0\nsamples = 4\nvalue = 0.0", fillcolor="#e5813970"] ;
950 -> 952 ;
953 [label="returns_lag_3 <= 0.19\nmse = 0.0\nsamples = 47\nvalue = -0.0", fillcolor="#e581396d"] ;
821 -> 953 ;
954 [label="mse = 0.0\nsamples = 1\nvalue = -0.0", fillcolor="#e5813950"] ;
953 -> 954 ;
955 [label="BTC/USD_returns_lag_3 <= 0.19\nmse = 0.0\nsamples = 46\nvalue = -0.0", fillcolor="#e581396f"] ;
953 -> 955 ;
956 [label="returns_lag_3 <= 0.19\nmse = 0.0\nsamples = 7\nvalue = -0.0", fillcolor="#e5813969"] ;
955 -> 956 ;
957 [label="BTC/USD_returns_lag_4 <= -0.35\nmse = 0.0\nsamples = 5\nvalue = -0.0", fillcolor="#e581396d"] ;
956 -> 957 ;
958 [label="mse = 0.0\nsamples = 2\nvalue = 0.0", fillcolor="#e5813970"] ;
957 -> 958 ;
959 [label="returns_lag_4 <= -0.17\nmse = 0.0\nsamples = 3\nvalue = -0.0", fillcolor="#e581396b"] ;
957 -> 959 ;
960 [label="mse = 0.0\nsamples = 1\nvalue = -0.0", fillcolor="#e5813966"] ;
959 -> 960 ;
961 [label="mse = 0.0\nsamples = 2\nvalue = 0.0", fillcolor="#e5813970"] ;
959 -> 961 ;
962 [label="BTC/USD_returns_lag_4 <= 0.0\nmse = 0.0\nsamples = 2\nvalue = -0.0", fillcolor="#e581395f"] ;
956 -> 962 ;
963 [label="mse = 0.0\nsamples = 1\nvalue = -0.0", fillcolor="#e5813962"] ;
962 -> 963 ;
964 [label="mse = 0.0\nsamples = 1\nvalue = -0.0", fillcolor="#e5813958"] ;
962 -> 964 ;
965 [label="BTC/USD_returns_lag_4 <= -0.73\nmse = 0.0\nsamples = 39\nvalue = -0.0", fillcolor="#e581396f"] ;
955 -> 965 ;
966 [label="returns_lag_3 <= 0.2\nmse = 0.0\nsamples = 4\nvalue = -0.0", fillcolor="#e5813966"] ;
965 -> 966 ;
967 [label="mse = 0.0\nsamples = 2\nvalue = -0.0", fillcolor="#e581396e"] ;
966 -> 967 ;
968 [label="BTC/USD_returns_lag_4 <= -1.05\nmse = 0.0\nsamples = 2\nvalue = -0.0", fillcolor="#e581395a"] ;
966 -> 968 ;
969 [label="mse = 0.0\nsamples = 1\nvalue = -0.0", fillcolor="#e5813954"] ;
968 -> 969 ;
970 [label="mse = 0.0\nsamples = 1\nvalue = -0.0", fillcolor="#e5813960"] ;
968 -> 970 ;
